// Auto-generated PPO Policy Weights
#pragma once

#include <math.h>

const int IN_FEATURES = 6;
const int L1_FEATURES = 64;
const int L2_FEATURES = 64;
const int OUT_FEATURES = 1;

const float WEIGHT1[6][64] = {
  {0.2177550494670868f, 0.1278689205646515f, 0.3409085273742676f, 0.13360267877578735f, -0.29630550742149353f, 0.0330704003572464f, -0.2875773012638092f, -0.07767059653997421f, -0.009039490483701229f, -0.1982104778289795f, -0.12152838706970215f, 0.3943684995174408f, -0.07817710936069489f, 0.19678887724876404f, 0.17593403160572052f, 0.29211893677711487f, 0.40337100625038147f, 0.15517611801624298f, -0.3757151961326599f, -0.30661067366600037f, -0.02177206613123417f, -0.10226502269506454f, -0.35993272066116333f, 0.33971303701400757f, -0.4812736511230469f, -0.13599233329296112f, 0.06890618056058884f, -0.013599148951470852f, 0.24606359004974365f, 0.15058153867721558f, -0.2713582217693329f, 0.7109227776527405f, 0.05405392497777939f, -0.1426668018102646f, 0.025381524115800858f, -0.13887348771095276f, -0.0707448273897171f, -0.2768705189228058f, 0.061115678399801254f, -0.004223956726491451f, 0.09251634031534195f, -0.185870960354805f, 0.041943617165088654f, 0.06671301275491714f, -0.45290714502334595f, -0.2948722839355469f, 0.04371657222509384f, -0.2192806452512741f, -0.3722253739833832f, 0.3327648937702179f, -0.07125795632600784f, 0.20708520710468292f, 0.2095831334590912f, 0.13196507096290588f, 0.10733649879693985f, -0.13059277832508087f, 0.1722726672887802f, -0.3052463233470917f, 0.09393300116062164f, -0.12025321274995804f, -0.15344324707984924f, -0.12816163897514343f, 0.04703940823674202f, -0.03969139978289604f},
  {0.35261207818984985f, -0.9533109068870544f, 0.27506476640701294f, -0.055851180106401443f, 0.21353355050086975f, -0.15364883840084076f, -0.30718615651130676f, -0.26013854146003723f, 0.6044638156890869f, -0.27647459506988525f, -0.5542328953742981f, 0.1548067182302475f, -0.17568159103393555f, -0.3101988434791565f, 0.1483575850725174f, -0.23282372951507568f, 0.19925551116466522f, -0.48583346605300903f, -0.6794635057449341f, -0.17682774364948273f, -0.6436426043510437f, 0.31696617603302f, 0.3909985423088074f, -0.22715167701244354f, 0.12172989547252655f, -0.45854753255844116f, -0.9278600811958313f, 0.34153833985328674f, -0.6339067816734314f, 0.08037175983190536f, 0.11295754462480545f, -0.11433807015419006f, 0.5595881342887878f, -0.3832336962223053f, 0.5321900248527527f, -0.15711461007595062f, -0.7045177221298218f, 0.6261611580848694f, 0.7202864289283752f, 0.41612207889556885f, 0.43285688757896423f, 0.34916922450065613f, 0.567835807800293f, -0.6362910270690918f, -0.47576379776000977f, -0.19031941890716553f, 0.45885345339775085f, 0.1359807252883911f, -0.34686070680618286f, 0.4927607774734497f, -0.6375882029533386f, -0.1758684366941452f, -0.30757957696914673f, 0.9660499095916748f, -0.3581163287162781f, -0.4665379822254181f, 0.17980527877807617f, 0.2763795554637909f, 0.6659235954284668f, 0.633926272392273f, -0.3244999349117279f, -0.8946321606636047f, 0.4439828097820282f, -0.021451009437441826f},
  {0.1401822566986084f, -0.2439231425523758f, -0.07864353805780411f, 0.40544694662094116f, -0.1273917555809021f, -0.2704465985298157f, -0.10725338757038116f, 0.39356791973114014f, -0.34576451778411865f, 0.5401274561882019f, -0.3968413472175598f, -0.307526558637619f, 0.2822630703449249f, -0.03715415671467781f, 0.1374572217464447f, -0.1227463036775589f, 0.2460433691740036f, -0.6246137619018555f, 0.3557814657688141f, 0.04905563220381737f, 0.3527742028236389f, 0.021187538281083107f, 1.0352325439453125f, -0.7367584109306335f, 0.2564655840396881f, -0.06964769959449768f, 0.27887171506881714f, 0.22278665006160736f, -0.00888338778167963f, 0.5830186009407043f, 0.8762521147727966f, -0.11247561872005463f, -0.02686581015586853f, 0.10030417144298553f, -0.46653538942337036f, 0.07396868616342545f, 0.21517884731292725f, 0.14551572501659393f, -0.030410612002015114f, 0.3264254033565521f, -0.0287175253033638f, -0.05320340022444725f, -0.07944601774215698f, 0.1548689305782318f, 0.24046243727207184f, 0.46105271577835083f, 0.15139390528202057f, 0.08772965520620346f, 0.2128235101699829f, 0.1366274654865265f, -0.241005077958107f, -0.06803194433450699f, -0.3647366762161255f, -0.4206962585449219f, -0.3396744430065155f, -0.1551097184419632f, 0.21589024364948273f, 0.14274360239505768f, 0.2563278079032898f, 0.35342225432395935f, -0.000376194657292217f, 0.41324344277381897f, -0.5216667056083679f, 0.2191256433725357f},
  {0.07563923299312592f, 0.014616369269788265f, -0.17965465784072876f, 0.4228920638561249f, -0.30790451169013977f, -0.17624585330486298f, 0.07311468571424484f, -0.011877648532390594f, -0.301066517829895f, -0.16210630536079407f, -0.02034526690840721f, -0.02246960438787937f, -0.3045646846294403f, 0.3523499071598053f, 0.1842365562915802f, 0.28528568148612976f, 0.045367106795310974f, -0.09677038341760635f, -0.06369397044181824f, -0.3039429187774658f, 0.03252727910876274f, 0.16810457408428192f, -0.15178675949573517f, -0.14096826314926147f, -0.27018463611602783f, 0.16366252303123474f, 0.06353000551462173f, 0.07762566953897476f, 0.17337511479854584f, -0.03763674572110176f, -0.3695133626461029f, -0.0646928921341896f, 0.3120056986808777f, -0.3469589054584503f, -0.10765565931797028f, 0.3146502673625946f, -0.11813423037528992f, -0.07185836136341095f, -0.04097774624824524f, 0.18713127076625824f, -0.2802581787109375f, 0.007050694897770882f, 0.07697657495737076f, 0.12499871104955673f, 0.012149612419307232f, 0.10082373768091202f, -0.1007964164018631f, 0.33247095346450806f, 0.24328136444091797f, -0.10249705612659454f, 0.021548578515648842f, -0.06532157957553864f, 0.11623379588127136f, 0.17200765013694763f, 0.18255238234996796f, 0.11596715450286865f, 0.5181649327278137f, 0.23643812537193298f, 0.06759333610534668f, -0.09231320768594742f, -0.1276644915342331f, -0.36803364753723145f, -0.08895519375801086f, 0.5686725378036499f},
  {0.4704877734184265f, 0.42921963334083557f, 0.23031631112098694f, -0.5142627358436584f, 0.18719615042209625f, 0.04767749831080437f, -0.5772431492805481f, -0.3846640884876251f, -0.408226877450943f, -0.019968809559941292f, -0.21865633130073547f, 0.0022246576845645905f, 0.12572725117206573f, -0.03508254140615463f, -0.18676947057247162f, 0.6702002286911011f, 0.39304524660110474f, 0.660048246383667f, 0.10853032767772675f, -0.5171077847480774f, 1.476675033569336f, -0.5494510531425476f, -0.10094480216503143f, -0.5694398880004883f, 0.4104759395122528f, -0.33985424041748047f, 0.3588576316833496f, 0.7738207578659058f, 0.017821071669459343f, -0.37780874967575073f, -0.2708708643913269f, 0.4122401773929596f, 0.1296512335538864f, 0.29919394850730896f, 0.0058448598720133305f, 0.1902463138103485f, 0.4720125198364258f, -0.3724380135536194f, -0.2612853944301605f, -0.5771427154541016f, -0.04389439895749092f, -0.4119313657283783f, -0.022046953439712524f, 0.3913857638835907f, 0.22087429463863373f, 0.04183609411120415f, -0.07842304557561874f, -0.7326225638389587f, 0.2080731838941574f, -1.0605391263961792f, 0.06978641450405121f, 0.6550778746604919f, 0.06485149264335632f, -0.5883328318595886f, -0.142118439078331f, -0.5242089033126831f, -0.6299028992652893f, 0.034341201186180115f, 0.43485158681869507f, -1.3245949745178223f, 0.3366997539997101f, 1.2416619062423706f, -0.490459680557251f, 0.6963916420936584f},
  {-0.032246191054582596f, -0.15132521092891693f, 0.06564681231975555f, 0.1263534128665924f, -0.17785219848155975f, 0.13401848077774048f, 0.018183432519435883f, 0.24221287667751312f, 0.222091943025589f, -0.05873158574104309f, 0.392403244972229f, 0.18035809695720673f, 0.02765759266912937f, 0.33419570326805115f, 0.043705329298973083f, 0.13445603847503662f, 0.15900819003582f, -0.21696488559246063f, 0.2221052348613739f, 0.3228590488433838f, 0.4342067539691925f, -0.3594733476638794f, 0.057970430701971054f, -0.06776267290115356f, 0.06857861578464508f, -0.03792217746376991f, -0.16525427997112274f, -0.18022671341896057f, -0.23105162382125854f, 0.15886278450489044f, 0.20577576756477356f, 0.1375793069601059f, 0.029334604740142822f, 0.011789006181061268f, 0.14167174696922302f, -0.010046768933534622f, 0.12799936532974243f, -0.06770285218954086f, -0.07320130616426468f, -0.07353482395410538f, 0.1356181800365448f, 0.18089145421981812f, -0.05118045583367348f, -0.035824455320835114f, -0.16626779735088348f, 0.1368177980184555f, -0.20451340079307556f, 0.1660643219947815f, -0.04312114417552948f, 0.06727968901395798f, 0.3819441795349121f, 0.10738767683506012f, 0.023124361410737038f, 0.085039883852005f, -0.008038889616727829f, -0.08661258220672607f, 0.1553814560174942f, 0.002801252529025078f, 0.19933786988258362f, -0.08404149115085602f, -0.035732075572013855f, 0.1677892506122589f, 0.22177468240261078f, -0.09207898378372192f},
};

const float BIAS1[64] = {
0.051458921283483505f, 0.005251030903309584f, 0.013117950409650803f, -0.33096468448638916f, 0.3779885172843933f, 0.03910288214683533f, -0.0005038078525103629f, 0.004738228861242533f, 0.23177222907543182f, -0.06848327815532684f, -0.04293811321258545f, -0.03506283089518547f, -0.07549664378166199f, -0.03572791442275047f, -0.12831465899944305f, 0.013103480450809002f, -0.010428376495838165f, -0.0500965416431427f, 0.060272786766290665f, 0.20711363852024078f, 0.006672926712781191f, -0.05548130348324776f, -0.023018352687358856f, -0.0015951792011037469f, 0.11680565774440765f, -0.001931584207341075f, -0.07420087605714798f, -0.06236935034394264f, -0.015669962391257286f, -0.037323422729969025f, -0.08817704766988754f, -0.45504942536354065f, 0.02689080685377121f, -0.020165584981441498f, 0.3396320641040802f, -0.09897518157958984f, -0.010027935728430748f, 0.011640036478638649f, -0.014817090705037117f, -0.038948964327573776f, -0.03529956936836243f, 0.010725326836109161f, 0.01592870242893696f, -0.003446651389822364f, 0.014429327100515366f, 0.09778417646884918f, -0.041245218366384506f, -0.14476355910301208f, 0.01252022199332714f, 0.1383565366268158f, 0.03767199069261551f, -0.02252637967467308f, 0.00956675410270691f, -0.0933055654168129f, -0.017336897552013397f, -0.02232234925031662f, -0.18055418133735657f, -0.0056694624945521355f, 0.02637612819671631f, 0.04878390580415726f, 0.07640126347541809f, 0.23194168508052826f, -0.02640942856669426f, 0.2539760172367096f
};

const float WEIGHT2[64][64] = {
  {-0.21128427982330322f, 0.28915053606033325f, 0.0306946262717247f, 0.4209839999675751f, 0.6134771704673767f, -0.11660371720790863f, -0.0718122124671936f, 0.10253424197435379f, 0.2130449116230011f, -0.31630945205688477f, 0.17396017909049988f, 0.14755195379257202f, -0.17733526229858398f, 0.12608809769153595f, -0.25484412908554077f, 0.02617325447499752f, 0.11077073961496353f, -0.08504015952348709f, 0.19583389163017273f, -0.23493103682994843f, -0.18370290100574493f, 0.30366677045822144f, -0.08931530267000198f, -0.2703343629837036f, -0.12847726047039032f, -0.5926232933998108f, -0.06675495207309723f, 0.059424638748168945f, -0.44267213344573975f, -0.07862120866775513f, -0.0888398289680481f, -0.13687029480934143f, -0.27247297763824463f, -0.07461148500442505f, -0.39560467004776f, 0.03355967625975609f, -0.08933788537979126f, 0.20302508771419525f, 0.0002350906579522416f, -0.2687005400657654f, 0.22652161121368408f, 0.7404159903526306f, -0.12443488836288452f, -0.22048057615756989f, 0.018149586394429207f, 0.1889161318540573f, -0.21788814663887024f, -0.14228498935699463f, 0.18826250731945038f, 0.1684715300798416f, -0.08737403899431229f, -0.2045600861310959f, -0.20170196890830994f, -0.07353968918323517f, 0.025072606280446053f, 0.03119770996272564f, 0.061917003244161606f, -0.10511717200279236f, -0.10969378799200058f, -0.1625768095254898f, 0.18830305337905884f, 0.08205254375934601f, 0.0910768136382103f, 0.2547285854816437f},
  {0.3676021993160248f, 0.04909095540642738f, -0.11549524962902069f, 0.035309016704559326f, 0.16161227226257324f, -0.07036378979682922f, -0.06674212962388992f, -0.27391165494918823f, 0.07963989675045013f, -0.21938005089759827f, -0.10799195617437363f, -0.12220953404903412f, -0.06619616597890854f, -0.036246318370103836f, -0.037888381630182266f, 0.009478061459958553f, -0.32841894030570984f, 0.7153222560882568f, 0.02382395602762699f, -0.004883857443928719f, -0.1116802841424942f, -0.1616716831922531f, 0.33299925923347473f, -0.04011404886841774f, 0.18498581647872925f, -0.21795359253883362f, 0.03521189093589783f, 0.22268423438072205f, -0.08170630782842636f, 0.4386994242668152f, 0.24337303638458252f, 0.37701845169067383f, 0.03431899473071098f, 0.27245911955833435f, 0.3789222836494446f, 0.28630560636520386f, -0.15916134417057037f, 0.021554680541157722f, 0.31671467423439026f, 0.01874096691608429f, -0.03317022696137428f, 0.10222645848989487f, 0.09292477369308472f, 0.10416273027658463f, 0.1444164514541626f, -0.3191860616207123f, -0.1164453774690628f, 0.03372698277235031f, 0.23736979067325592f, 0.09046072512865067f, -0.028236789628863335f, -0.1566428393125534f, 0.1374216079711914f, 0.0050093550235033035f, -0.5058377981185913f, -0.13749106228351593f, -0.10489202290773392f, 0.2345329076051712f, -0.0927077978849411f, -0.114031121134758f, 0.00023861161025706679f, 0.11089589446783066f, -0.01968403160572052f, 0.3952193558216095f},
  {0.1269453912973404f, -0.0900074765086174f, -0.10537729412317276f, -0.0015442585572600365f, 0.1267545521259308f, -0.1072826012969017f, 0.05458417534828186f, 0.2748115658760071f, -0.10754338651895523f, -0.07344847172498703f, 0.08571198582649231f, -0.1844068169593811f, -0.10491829365491867f, 0.058132320642471313f, 0.03318661078810692f, -0.013871539384126663f, -0.21785598993301392f, 0.006455457303673029f, 0.11722133308649063f, -0.03379855677485466f, -0.14159934222698212f, -0.17066690325737f, -0.1505979597568512f, -0.11208122223615646f, 0.05780329927802086f, -0.07231875509023666f, -0.1516937017440796f, -0.19246122241020203f, -0.21471723914146423f, -0.022215181961655617f, 0.024800404906272888f, 0.008928549475967884f, 0.19169564545154572f, -0.2581772208213806f, 0.07795547693967819f, -0.05990796908736229f, 0.09327474236488342f, -0.14744476974010468f, 0.1155630499124527f, 0.2044658213853836f, -0.10626216977834702f, 0.1772504299879074f, 0.08925669640302658f, -0.04984843358397484f, 0.5646680593490601f, -0.08511058241128922f, -0.16412553191184998f, -0.15365368127822876f, -0.11869296431541443f, -0.2578759789466858f, 0.2678911089897156f, -0.30099380016326904f, 0.2660115957260132f, -0.3751055896282196f, 0.15297119319438934f, -0.30821070075035095f, 0.21169808506965637f, -0.28483977913856506f, -0.024995233863592148f, 0.13998740911483765f, -0.5494588017463684f, 0.023804694414138794f, -0.02335505560040474f, -0.1253006011247635f},
  {-0.06189069524407387f, -0.0203358456492424f, -0.17858846485614777f, -0.30747851729393005f, 0.018628332763910294f, -0.18418827652931213f, 0.25628384947776794f, 0.28385210037231445f, 0.0604737214744091f, 0.16909535229206085f, -0.24818265438079834f, -0.03447048366069794f, -0.2656056582927704f, -0.08430678397417068f, 0.16618327796459198f, 0.1748567670583725f, 0.047916997224092484f, -0.17635193467140198f, 0.027651453390717506f, 0.024349430575966835f, -0.2482193559408188f, 0.1771194338798523f, -0.20096787810325623f, 0.1957659274339676f, 0.14503951370716095f, -0.15102411806583405f, -0.3358671963214874f, 0.08124009519815445f, 0.033478498458862305f, -0.25067201256752014f, 0.252487450838089f, 0.033486705273389816f, 0.07473499327898026f, 0.26083633303642273f, 0.241836816072464f, -0.2272878885269165f, -0.03981870785355568f, -0.11966217309236526f, -0.26707130670547485f, 0.024388013407588005f, 0.17668558657169342f, 0.04720645770430565f, 0.043920837342739105f, -0.19895289838314056f, -0.20760835707187653f, 0.15170516073703766f, -0.22694893181324005f, 0.05005621910095215f, -0.048831336200237274f, 0.034454114735126495f, -0.07390258461236954f, 1.0400437116622925f, -0.1563439518213272f, -0.22611048817634583f, -0.005892588756978512f, -0.26505616307258606f, 0.09552352130413055f, 0.2699316143989563f, -0.03605818375945091f, 0.022948570549488068f, 0.20969364047050476f, 0.31265968084335327f, 0.10047649592161179f, 0.03147193789482117f},
  {-0.4771900177001953f, -0.09439989924430847f, 0.14058876037597656f, -0.06284955143928528f, -0.5988080501556396f, -0.042504794895648956f, 0.28648146986961365f, -0.04064932093024254f, 0.1595609337091446f, 0.007054722867906094f, 0.3501644432544708f, 0.02721293643116951f, -0.1521073877811432f, 0.0007199770188890398f, 0.15589527785778046f, -0.08103807270526886f, -0.3762958347797394f, 0.04775388538837433f, 0.1146152913570404f, 0.0396575853228569f, 0.04966828599572182f, -0.06557897478342056f, 0.09663081914186478f, 0.10353469103574753f, 0.2740110158920288f, -0.3035544455051422f, 0.021427346393465996f, -0.06855068355798721f, -0.08782242238521576f, -0.03043503127992153f, 0.038750797510147095f, -0.064977265894413f, 0.1703355461359024f, -0.15991736948490143f, -0.19752651453018188f, -0.11684245616197586f, -0.2038964480161667f, -0.05792341008782387f, -0.0354219451546669f, 0.024266818538308144f, -0.025783507153391838f, -0.009417756460607052f, 0.22584667801856995f, 0.13983888924121857f, -0.016598444432020187f, 0.04302363470196724f, -0.31914836168289185f, 0.19855226576328278f, -0.09606386721134186f, -0.08198262006044388f, 0.0732138454914093f, -0.824591875076294f, 0.07605309039354324f, 0.046506233513355255f, -0.20100508630275726f, 0.1658659130334854f, -0.004551202058792114f, -0.2527528703212738f, -0.11997698247432709f, -0.10106880217790604f, 0.1582649052143097f, 0.10187707841396332f, 0.29490023851394653f, 0.0982481837272644f},
  {0.14596189558506012f, 0.042421940714120865f, -0.042295295745134354f, -0.12059767544269562f, -0.036393214017152786f, 0.04312688484787941f, -0.1653847098350525f, 0.3120143413543701f, 0.11421193927526474f, -0.28951430320739746f, -0.016153816133737564f, 0.17890912294387817f, 0.05561056733131409f, 0.011479981243610382f, 0.2193460911512375f, 0.21742182970046997f, 0.05281280726194382f, 0.19945476949214935f, -0.22818782925605774f, 0.16000626981258392f, -0.0539361871778965f, -0.17768912017345428f, -0.14832811057567596f, -0.19418352842330933f, 0.06812453269958496f, -0.4838738441467285f, 0.2992265522480011f, -0.0563310906291008f, -0.3784042000770569f, 0.005233599338680506f, -0.0926155224442482f, 0.050057001411914825f, 0.19536635279655457f, 0.03610309213399887f, 0.04265874624252319f, 0.1103588342666626f, -0.4008958637714386f, 0.012810290791094303f, -0.29909029603004456f, 0.2857995629310608f, -0.012847508303821087f, -0.22274526953697205f, 0.1365170180797577f, 0.12890948355197906f, -0.16941159963607788f, -0.1178022101521492f, 0.12961266934871674f, 0.07564133405685425f, -0.06015828996896744f, -0.030582139268517494f, -0.28644365072250366f, -0.05854567512869835f, 0.11099258810281754f, 0.00017902953550219536f, 0.13173507153987885f, -0.08921284973621368f, 0.028471702709794044f, -0.1306636780500412f, 0.27407801151275635f, -0.080326147377491f, -0.06627289205789566f, -0.40439343452453613f, -0.09924062341451645f, 0.01975511945784092f},
  {-0.09605520218610764f, -0.4517675042152405f, -0.07469134777784348f, -0.053992196917533875f, -0.3398299515247345f, -0.12648645043373108f, 0.08544086664915085f, -0.3428266644477844f, -0.1341501772403717f, -0.0203360877931118f, -0.03224426507949829f, 0.15210580825805664f, -0.3566531240940094f, 0.14783832430839539f, -0.21091526746749878f, -0.25607433915138245f, 0.18543118238449097f, 0.031055793166160583f, -0.24710692465305328f, 0.42592689394950867f, 0.12600673735141754f, -0.04734516516327858f, 0.032705120742321014f, 0.14084568619728088f, -0.08275146037340164f, 0.3448951244354248f, 0.3283979594707489f, -0.15329664945602417f, 0.05332564562559128f, -0.3848726153373718f, -0.3698617219924927f, -0.06571592390537262f, -0.09366414695978165f, 0.27863889932632446f, 0.3261798620223999f, -0.07098992168903351f, -0.11164182424545288f, -0.2316606342792511f, -0.20771269500255585f, -0.026896394789218903f, -0.1839865744113922f, -0.37798523902893066f, -0.0214858278632164f, -0.04251255467534065f, 0.46027621626853943f, 0.14038757979869843f, 0.034354761242866516f, 0.09733911603689194f, -0.46333199739456177f, 0.14099539816379547f, 0.004139916505664587f, 0.03503861650824547f, -0.31139901280403137f, 0.06515182554721832f, -0.07052504271268845f, -0.3037281632423401f, 0.13495522737503052f, 0.042784061282873154f, 0.13891182839870453f, 0.18976590037345886f, -0.17244946956634521f, -0.14254552125930786f, 0.12155422568321228f, 0.4201613962650299f},
  {-0.12427277863025665f, 0.24559374153614044f, 0.03319549933075905f, -0.1090751588344574f, 0.08779537677764893f, -0.21651813387870789f, -0.05995967984199524f, 0.03403596952557564f, 0.09646537899971008f, -0.025710925459861755f, 0.36238017678260803f, 0.11496579647064209f, 0.15425898134708405f, -0.07772492617368698f, 0.09885230660438538f, -0.03905976936221123f, 0.11449012905359268f, -0.09405628591775894f, 0.04370645061135292f, 0.33483773469924927f, 0.2021004557609558f, 0.21028780937194824f, 0.05700888857245445f, 0.31663036346435547f, -0.10860148072242737f, 0.06296928972005844f, 0.14017418026924133f, -0.28807416558265686f, -0.12354964762926102f, -0.4275578260421753f, 0.4431489109992981f, -0.2862444221973419f, -0.1957109272480011f, -0.06591392308473587f, -0.13150973618030548f, 0.2535048723220825f, 0.22670221328735352f, 0.09357243031263351f, -0.15506219863891602f, 0.2020062506198883f, 0.11917627602815628f, -0.04692572355270386f, 0.1454264372587204f, -0.2152828425168991f, 0.20719265937805176f, 0.03758784383535385f, 0.17576836049556732f, 0.19228288531303406f, 0.04024789109826088f, -0.022988077253103256f, -0.024202803149819374f, 0.16736061871051788f, 0.182408407330513f, 0.07352394610643387f, -0.41952547430992126f, -0.03891270235180855f, -0.12336929142475128f, 0.03318966552615166f, 0.1001572534441948f, 0.20281657576560974f, -0.09703145176172256f, 0.2395835667848587f, -0.4084245562553406f, 0.0013121777446940541f},
  {0.13496911525726318f, -0.09977896511554718f, -0.3228408992290497f, -0.17293968796730042f, -0.23279108107089996f, -0.06985729932785034f, -0.22017191350460052f, 0.3493799567222595f, -0.178018718957901f, -0.1152527704834938f, -0.2595658004283905f, -0.15667761862277985f, -0.2178332358598709f, 0.030531832948327065f, -0.07906120270490646f, -0.31528833508491516f, 0.18178917467594147f, -0.2995021343231201f, -0.13841645419597626f, 0.06250427663326263f, 0.1533813625574112f, -0.06618359684944153f, -0.2603170871734619f, 0.1494588851928711f, -0.3782041668891907f, 0.00610165111720562f, 0.13205397129058838f, -0.09920840710401535f, -0.2625080347061157f, 0.11038827896118164f, 0.16790592670440674f, 0.013497598469257355f, 0.06264813989400864f, -0.22620271146297455f, -0.15661458671092987f, -0.10076701641082764f, -0.22817659378051758f, -0.2189447283744812f, 0.02053568698465824f, -0.12862853705883026f, -0.0579177550971508f, -0.3469555974006653f, -0.126845121383667f, 0.3063354790210724f, 0.07229804247617722f, -0.2287207692861557f, -0.10862921178340912f, 0.018524818122386932f, -0.036585867404937744f, 0.11082246154546738f, 0.04160737618803978f, -0.6618998646736145f, -0.07385033369064331f, -0.20442262291908264f, -0.39033886790275574f, 0.16853994131088257f, 0.09959324449300766f, 0.34169694781303406f, -0.08876603096723557f, 0.010470103472471237f, 0.012225337326526642f, 0.14079023897647858f, 0.13850174844264984f, -0.1997707486152649f},
  {-0.3524833917617798f, 0.11622871458530426f, -0.15280765295028687f, 0.35752248764038086f, 0.13006825745105743f, 0.24262839555740356f, -0.43140098452568054f, -0.08793532848358154f, -0.26453834772109985f, 0.10662274062633514f, -0.1275499016046524f, -0.1056428998708725f, 0.16552534699440002f, 0.19169221818447113f, 0.12552466988563538f, -0.219382643699646f, -0.32579126954078674f, -0.20396418869495392f, 0.41267141699790955f, -0.16050569713115692f, 0.3088904917240143f, -0.26608672738075256f, 0.054788149893283844f, 0.10959824174642563f, 0.2365720123052597f, -0.11432495713233948f, -0.12778255343437195f, 0.1548883467912674f, -0.31355810165405273f, -0.3819085955619812f, 0.27024874091148376f, 0.18970972299575806f, 0.08773251622915268f, 0.09490439295768738f, -0.26748332381248474f, 0.188019797205925f, 0.060939278453588486f, -0.2135711908340454f, -0.2311531901359558f, -0.12172931432723999f, -0.11796654015779495f, 0.13207939267158508f, 0.045466650277376175f, -0.007862322963774204f, 0.1468813270330429f, 0.3894512951374054f, 0.34550750255584717f, 0.12019854038953781f, 0.01269459631294012f, -0.19084933400154114f, -0.0013152702013030648f, 0.3963906764984131f, -0.11886785924434662f, -0.05537224933505058f, 0.026615561917424202f, 0.03475714474916458f, -0.0299630519002676f, 0.06257984042167664f, 0.1555130034685135f, 0.14133723080158234f, 0.0577545166015625f, 0.05025533214211464f, -0.056641243398189545f, -0.1517689973115921f},
  {-0.0007192721241153777f, -0.30278488993644714f, 0.2823035717010498f, 0.06876976788043976f, -0.09697650372982025f, -0.16690371930599213f, -0.19372601807117462f, 0.0942712128162384f, -0.01661498285830021f, 0.20849519968032837f, 0.15384124219417572f, -0.12512348592281342f, -0.15864194929599762f, -0.09953587502241135f, 0.3307880461215973f, -0.4175150692462921f, 0.1347295194864273f, 0.46913740038871765f, -0.27777180075645447f, 0.313435435295105f, -0.08398448675870895f, -0.023685917258262634f, 0.19680099189281464f, 0.26395881175994873f, -0.0931536853313446f, 0.21495729684829712f, -0.13736724853515625f, -0.12097538262605667f, -0.1191159039735794f, 0.32743293046951294f, 0.12354716658592224f, 0.23935264348983765f, -0.11160022765398026f, 0.25173208117485046f, 0.23556707799434662f, 0.17431654036045074f, -0.4251505136489868f, 0.30605000257492065f, -0.06674440950155258f, -0.3234008848667145f, 0.28503313660621643f, -0.28545722365379333f, -0.11847740411758423f, 0.2969476878643036f, 0.07909800112247467f, -0.12803438305854797f, 0.03956199064850807f, -0.13243931531906128f, -0.3235838711261749f, 0.04807767644524574f, 0.11645270138978958f, 0.16496504843235016f, 0.25403857231140137f, -0.0998881459236145f, 0.28159183263778687f, 0.0416589230298996f, 0.1376711130142212f, -0.05046805366873741f, -0.034677643328905106f, 0.12021318078041077f, -0.007059058640152216f, 0.022903792560100555f, 0.08031480759382248f, -0.051923491060733795f},
  {0.09388647973537445f, -0.1140148863196373f, -0.023148074746131897f, -0.3769773542881012f, -0.10075496882200241f, 0.47997793555259705f, -0.06037371605634689f, 0.4373740553855896f, 0.015475114807486534f, -0.1709643006324768f, -0.10562299937009811f, 0.1554199904203415f, -0.1433490365743637f, 0.01912613771855831f, 0.04220450669527054f, -0.14379972219467163f, 0.10481005907058716f, 0.26338836550712585f, 0.030353058129549026f, -0.18653535842895508f, -0.3396703004837036f, -0.06845123320817947f, 0.25692325830459595f, 0.5722623467445374f, -0.02949753776192665f, -0.15867576003074646f, 0.2265503853559494f, -0.049111392349004745f, -0.12752775847911835f, -0.006782378535717726f, -0.40419328212738037f, -0.041840266436338425f, -0.06900102645158768f, 0.1697099357843399f, 0.1088552474975586f, 0.17335817217826843f, 0.05770742520689964f, -0.042263247072696686f, 0.18879979848861694f, 0.12221459299325943f, -0.02079819142818451f, -0.09014730900526047f, -0.19100527465343475f, -0.1054544448852539f, 0.021799713373184204f, 0.017291998490691185f, 0.18545664846897125f, 0.08335356414318085f, -0.1625615805387497f, -0.224565789103508f, 0.35472697019577026f, -0.2538093030452728f, 0.008029949851334095f, -0.08343593031167984f, -0.000493668660055846f, 0.05145467072725296f, -0.08158187568187714f, -0.10297167301177979f, -0.2256147265434265f, -0.28083282709121704f, 0.044729188084602356f, 0.0965236946940422f, 0.01834743842482567f, -0.039331503212451935f},
  {-0.01875550113618374f, -0.04695300757884979f, 0.3811488449573517f, 0.021232619881629944f, 0.19167141616344452f, 0.10742104798555374f, -0.063934326171875f, -0.08067110925912857f, -0.16997863352298737f, -0.3382023870944977f, -0.14394359290599823f, 0.0376812145113945f, -0.005466832779347897f, 0.26115280389785767f, 0.23847848176956177f, 0.09252121299505234f, -0.14364871382713318f, -0.31613677740097046f, -0.14826740324497223f, 0.22778789699077606f, -0.3082108199596405f, 0.1117761954665184f, 0.2364673614501953f, -0.06509849429130554f, 0.21036958694458008f, -0.06752415001392365f, -0.3418501615524292f, -0.0472537986934185f, -0.046028587967157364f, -0.014463064260780811f, 0.2884112596511841f, -0.12985491752624512f, 0.07337239384651184f, -0.33064529299736023f, 0.00454075587913394f, -0.13798834383487701f, 0.07242923974990845f, -0.012694385834038258f, -0.057709526270627975f, -0.17953042685985565f, 0.09298256784677505f, 0.1867830604314804f, -0.27488061785697937f, 0.033350855112075806f, -0.1155213862657547f, 0.11459922790527344f, 0.46764373779296875f, 0.2685188055038452f, 0.46315187215805054f, -0.32202234864234924f, 0.08713473379611969f, 0.11234074831008911f, -0.15222299098968506f, -0.04818899184465408f, -0.29240477085113525f, 0.20424097776412964f, 0.0760178491473198f, -0.15866585075855255f, 0.08136935532093048f, 0.1031164601445198f, -0.4277300238609314f, -0.029690202325582504f, 0.1784338355064392f, -0.022962434217333794f},
  {-0.15509043633937836f, 0.03641597181558609f, 0.06811763346195221f, -0.0641845315694809f, 0.12117616832256317f, -0.12614764273166656f, -0.001881360774859786f, -0.30146363377571106f, -0.22950179874897003f, 0.03591782972216606f, 0.5335118770599365f, -0.168909952044487f, -0.21136930584907532f, -0.2589673399925232f, 0.24032390117645264f, 0.2691483795642853f, 0.07294336706399918f, -0.16908638179302216f, -0.16456273198127747f, -0.24512581527233124f, 0.039919715374708176f, -0.045568980276584625f, -0.19665475189685822f, 0.014802936464548111f, 0.06375205516815186f, 0.09721191972494125f, 0.052635010331869125f, 0.18862181901931763f, 0.015721740201115608f, -0.028056098148226738f, -0.2302689403295517f, -0.128337562084198f, 0.053858429193496704f, 0.08173865079879761f, 0.14466144144535065f, 0.17612063884735107f, -0.3123900890350342f, -0.34731441736221313f, 0.3744487166404724f, -0.07713363319635391f, 0.007240501698106527f, -0.021188225597143173f, -0.23331908881664276f, -0.011638372205197811f, -0.12174374610185623f, 0.038256168365478516f, 0.21220198273658752f, 0.054182521998882294f, -0.19634278118610382f, 0.436972051858902f, -0.035355500876903534f, 0.3967897295951843f, -0.11874539405107498f, -0.31042203307151794f, -0.24193137884140015f, 0.005748109892010689f, -0.013855865225195885f, -0.10071351379156113f, -0.16264842450618744f, -0.02015484869480133f, 0.11482272297143936f, -0.09677566587924957f, -0.3829517364501953f, 0.02649872936308384f},
  {-0.041065022349357605f, -0.12349533289670944f, 0.43621042370796204f, -0.24018535017967224f, 0.4713418185710907f, -0.02188394032418728f, -0.06813625991344452f, 0.06511662155389786f, 0.07394450902938843f, -0.1619219034910202f, 0.10574432462453842f, 0.0806775614619255f, -0.2146950662136078f, -0.2894205152988434f, -0.05980798602104187f, -0.12113156914710999f, -0.04089941456913948f, -0.0700589120388031f, 0.030384592711925507f, -0.11089740693569183f, 0.07217249274253845f, 0.010716329328715801f, -0.18293674290180206f, -0.22390925884246826f, 0.117079958319664f, 0.3666204810142517f, 0.34091344475746155f, -0.06691108644008636f, -0.12135130912065506f, -0.23627853393554688f, 0.08089294284582138f, 0.026373380795121193f, 0.07530072331428528f, 0.04813890904188156f, 0.16653479635715485f, 0.03589592128992081f, 0.09315674751996994f, -0.035527050495147705f, 0.15377715229988098f, -0.16428183019161224f, -0.11834479123353958f, -0.19675438106060028f, 0.26111745834350586f, -0.168880432844162f, -0.07218828797340393f, 0.02478424645960331f, -0.15725642442703247f, 0.09060472995042801f, 0.10373767465353012f, -0.024960188195109367f, 0.31783562898635864f, 0.7366490364074707f, 0.05300343781709671f, 0.10033512860536575f, 0.022272882983088493f, 0.09108230471611023f, 0.10106220096349716f, 0.3417961299419403f, -0.03229108080267906f, 0.0301298126578331f, 0.31686049699783325f, -0.34774696826934814f, 0.3888193666934967f, -0.03048042207956314f},
  {0.176653653383255f, 0.2767605781555176f, -0.05753779783844948f, 0.2711688280105591f, 0.24287252128124237f, 0.07102535665035248f, -0.1509929746389389f, -0.0870998278260231f, -0.27219831943511963f, 0.10646608471870422f, 0.1769178956747055f, -0.005857521202415228f, 0.09219209849834442f, -0.2615514397621155f, -0.10853277891874313f, 0.17185057699680328f, 0.004152253270149231f, 0.028702273964881897f, 0.02526826784014702f, 0.143918976187706f, 0.0028967969119548798f, 0.03082367032766342f, -0.37615683674812317f, 0.03324117138981819f, 0.16897448897361755f, -0.1163782998919487f, 0.07183738797903061f, -0.1139155775308609f, -0.02788674086332321f, 0.16586141288280487f, -0.357460618019104f, 0.1713627278804779f, 0.07258735597133636f, -0.20175163447856903f, 0.30655616521835327f, 0.22582754492759705f, -0.14974406361579895f, 0.4450852870941162f, 0.1241489052772522f, -0.4127381443977356f, 0.06579024344682693f, 0.1227346658706665f, 0.289159893989563f, -0.37363114953041077f, -0.24775730073451996f, 0.23321853578090668f, -0.1489914506673813f, 0.16045595705509186f, 0.1508876383304596f, -0.29742375016212463f, -0.25946488976478577f, -0.07372395694255829f, -0.19039389491081238f, 0.12705710530281067f, -0.21172864735126495f, -0.23341014981269836f, 0.1225663274526596f, -0.07708804309368134f, -0.2897512912750244f, -0.2179793119430542f, 0.009113018400967121f, 0.1748652309179306f, 0.09563449025154114f, -0.2020188421010971f},
  {-0.2777681350708008f, 0.4255094826221466f, 0.2136400043964386f, -0.15695227682590485f, 0.5047682523727417f, 0.28535959124565125f, -0.15842902660369873f, -0.05644775927066803f, 0.08103721588850021f, 0.029875842854380608f, 0.04716496169567108f, -0.08792294561862946f, 0.024519270285964012f, -0.2133471667766571f, 0.13060639798641205f, -0.06996873766183853f, 0.18900945782661438f, -0.10733417421579361f, 0.3581545948982239f, -0.17199288308620453f, 0.16508857905864716f, 0.3035009801387787f, 0.03105667047202587f, -0.23473230004310608f, -0.006368341855704784f, -0.16142204403877258f, -0.10147739946842194f, -0.01744300127029419f, 0.04292725399136543f, 0.04994538426399231f, -0.1700614094734192f, 0.3281294107437134f, -0.0858822837471962f, -0.16293714940547943f, -0.014484457671642303f, -0.16010238230228424f, -0.1274561882019043f, 0.07806257903575897f, -0.14583943784236908f, 0.3078504800796509f, -0.39527660608291626f, 0.3027556538581848f, -0.10685666650533676f, 0.12093911319971085f, -0.23100289702415466f, 0.11844727396965027f, 0.004275953397154808f, -0.025873182341456413f, 0.1622999608516693f, 0.11482994258403778f, -0.23910313844680786f, 0.1374635398387909f, 0.028333203867077827f, 0.019878733903169632f, 0.11956184357404709f, -0.1542162448167801f, 0.004277056083083153f, 0.08112034946680069f, -0.225581094622612f, 0.034874606877565384f, -0.3087341785430908f, 0.453328013420105f, 0.1415400505065918f, 0.2354908138513565f},
  {0.13689176738262177f, -0.1680370718240738f, -0.02187727391719818f, 0.07250726968050003f, 0.20571789145469666f, 0.37355929613113403f, 0.29094022512435913f, -0.07466952502727509f, 0.04241001605987549f, 0.30031970143318176f, 0.09601444005966187f, 0.20140662789344788f, -0.33970221877098083f, 0.27876678109169006f, 0.0522155798971653f, 0.01033803541213274f, 0.2164340615272522f, 0.3379492461681366f, 0.2932709753513336f, 0.07042843848466873f, -0.04229520633816719f, -0.267652302980423f, -0.07280872017145157f, 0.30689987540245056f, -0.16579066216945648f, -0.05489230528473854f, 0.195122629404068f, -0.06186270713806152f, -0.23142147064208984f, 0.42094773054122925f, 0.1342564821243286f, 0.060840003192424774f, 0.13445569574832916f, 0.013715780340135098f, 0.33322733640670776f, -0.30245065689086914f, -0.03915519639849663f, 0.11905599385499954f, 0.23611824214458466f, 0.12424925714731216f, -0.0309896282851696f, 0.32932600378990173f, -0.03993220254778862f, 0.09813579171895981f, -0.07105260342359543f, -0.020709453150629997f, -0.08686355501413345f, 0.033240459859371185f, 0.20066048204898834f, 0.22426258027553558f, -0.22377000749111176f, -0.11780279874801636f, 0.19875888526439667f, 0.14322061836719513f, -0.19607758522033691f, 0.012607601471245289f, 0.1577243059873581f, -0.1314602643251419f, 0.07421939820051193f, 0.2567250430583954f, 0.11415117233991623f, -0.24171043932437897f, -0.009898039512336254f, -0.33137428760528564f},
  {-0.2926765978336334f, 0.5285196304321289f, 0.13284584879875183f, -0.23560607433319092f, -0.4149908125400543f, -0.14565633237361908f, 0.1366918534040451f, -0.13663852214813232f, -0.2945311367511749f, 0.14779481291770935f, -0.15780432522296906f, 0.2542209029197693f, -0.024376465007662773f, 0.31894025206565857f, 0.20657354593276978f, 0.11512944102287292f, 0.05666590854525566f, 0.1465752273797989f, -0.19614927470684052f, -0.24366091191768646f, 0.0004984562401659787f, 0.039074212312698364f, -0.0009436006075702608f, -0.32522574067115784f, 0.028605187311768532f, -0.0033284402452409267f, 0.0970497578382492f, -0.06390123814344406f, -0.13828249275684357f, -0.023671749979257584f, 0.36528894305229187f, 0.2165277749300003f, -0.2770945429801941f, -0.1768837720155716f, -0.007280418183654547f, 0.33322447538375854f, 0.09953512996435165f, -0.14454150199890137f, 0.046497832983732224f, -0.08875869959592819f, -0.047779034823179245f, 0.1441715657711029f, 0.13834795355796814f, 0.07271845638751984f, 0.6153289079666138f, 0.22063957154750824f, 0.10730691254138947f, 0.2637117803096771f, 0.3162519633769989f, 0.25338688492774963f, -0.1830887794494629f, 0.17247754335403442f, -0.2775707542896271f, 0.06313113868236542f, 0.240097314119339f, 0.13745486736297607f, -0.18446891009807587f, -0.07418452203273773f, 0.13819409906864166f, -0.10225064307451248f, -0.14952917397022247f, 0.23956513404846191f, 0.12370574474334717f, -0.18331678211688995f},
  {-0.04041122645139694f, 0.14007878303527832f, -0.2639033794403076f, -0.17933113873004913f, -0.7551048994064331f, 0.2688286006450653f, -0.30677369236946106f, -0.05409526079893112f, 0.3448532223701477f, 0.22139625251293182f, -0.3502461314201355f, 0.020383238792419434f, 0.07460524886846542f, -0.28286850452423096f, 0.33798912167549133f, 0.022891882807016373f, -0.052311383187770844f, -0.22323167324066162f, -0.23565581440925598f, 0.01976066827774048f, 0.05320132151246071f, -0.05252637714147568f, 0.1053653284907341f, -0.11141646653413773f, -0.02890445478260517f, 0.25908103585243225f, -0.10728932172060013f, -0.025827068835496902f, -0.3308585584163666f, -0.12106429785490036f, 0.16236092150211334f, -0.10093054175376892f, 0.020149165764451027f, -0.10708597302436829f, -0.09521875530481339f, -0.3980514705181122f, 0.03477829322218895f, 0.08022312074899673f, 0.20100219547748566f, -0.04327630251646042f, 0.21440757811069489f, -0.027515938505530357f, -0.061581987887620926f, -0.18145520985126495f, 0.6644487380981445f, -0.0091457050293684f, 0.37408962845802307f, -0.038764532655477524f, -0.27536314725875854f, 0.21819117665290833f, -0.016898980364203453f, -0.10558316856622696f, 0.23979763686656952f, 0.14056292176246643f, -0.18215027451515198f, -0.19649872183799744f, 0.04704025387763977f, -0.2079097330570221f, 0.12172546982765198f, -0.0076422314159572124f, 0.09758975356817245f, -0.07356299459934235f, 0.3287406861782074f, 0.1825868785381317f},
  {-0.22299958765506744f, 0.8845083713531494f, -0.1626785546541214f, 0.04667356237769127f, 0.11019475013017654f, 0.34466317296028137f, 0.1000310629606247f, 0.0651545375585556f, -0.10432998090982437f, -0.15786337852478027f, 0.32329273223876953f, -0.008319339714944363f, -0.013695799745619297f, -0.24991314113140106f, -0.15249516069889069f, 0.11937088519334793f, -0.06808248907327652f, 0.4384017586708069f, 0.2553623914718628f, -0.2515697777271271f, 0.19694216549396515f, -0.231038898229599f, 0.1459171026945114f, -0.7243135571479797f, -0.21596693992614746f, 0.003409398254007101f, -0.6352884769439697f, 0.08978457748889923f, -0.19336660206317902f, 0.09493494778871536f, 0.17688216269016266f, -0.06177753210067749f, -0.3045355975627899f, 0.003435050370171666f, -0.16367489099502563f, 0.044781990349292755f, -0.08134874701499939f, -0.020566647872328758f, 0.0196848027408123f, -0.0651833638548851f, 0.4087141752243042f, 0.7793744206428528f, -0.1644030064344406f, 0.13725592195987701f, -0.15996435284614563f, 0.058283548802137375f, -0.13612008094787598f, 0.4395099878311157f, 0.8613624572753906f, -0.5899717211723328f, -0.3580428957939148f, 0.14868497848510742f, 0.016821153461933136f, -0.1967266947031021f, 0.08970683813095093f, -0.05243296921253204f, -0.19027215242385864f, 0.062185727059841156f, -0.0462486706674099f, 0.22850480675697327f, -0.05177021771669388f, -0.081086665391922f, 0.03363087400794029f, 0.013465698808431625f},
  {-0.10569500178098679f, -0.5012103319168091f, -0.10600405186414719f, -0.25133582949638367f, 0.15514428913593292f, -0.14032872021198273f, -0.15867012739181519f, -0.07806569337844849f, 0.38137108087539673f, -0.04802047088742256f, 0.22184331715106964f, -0.2937227785587311f, 0.18241408467292786f, 0.08864139765501022f, 0.037665389478206635f, 0.08699236810207367f, 0.2815228998661041f, -0.5452620387077332f, -0.15188753604888916f, -0.40888094902038574f, -0.1765596717596054f, -0.13887012004852295f, 0.22614149749279022f, 0.28009888529777527f, -0.14077620208263397f, 0.11463344842195511f, 0.22998149693012238f, 0.132879376411438f, 0.010618227533996105f, -0.17233583331108093f, -0.035566892474889755f, 0.022665394470095634f, 0.1702049970626831f, -0.11201499402523041f, 0.323127806186676f, 0.10482902079820633f, -0.1277151256799698f, 0.21276262402534485f, 0.04048532247543335f, 0.02339238114655018f, 0.02612150087952614f, -0.2996158003807068f, -0.009222335182130337f, -0.1297822892665863f, 0.16235998272895813f, 0.24840037524700165f, -0.4048382043838501f, -0.14364983141422272f, -0.006027550902217627f, -0.15442413091659546f, -0.20974649488925934f, 0.025181280449032784f, -0.23775933682918549f, 0.19402317702770233f, 0.17423418164253235f, 0.05278201401233673f, -0.08232826739549637f, 0.06464841216802597f, 0.05399281904101372f, 0.1251719892024994f, -0.022106347605586052f, 0.017718937247991562f, -0.06523428112268448f, 0.03813369944691658f},
  {-0.11019307374954224f, 0.12557771801948547f, 0.06820186972618103f, 0.056573327630758286f, -0.42704278230667114f, 0.08930005133152008f, -0.14407148957252502f, -0.11361473798751831f, 0.026247447356581688f, -0.07030394673347473f, -0.01695239171385765f, 0.3414361774921417f, -0.2552131712436676f, -0.0595395527780056f, -0.042789068073034286f, 0.1023474708199501f, 0.07146406918764114f, -0.7209709286689758f, -0.17009271681308746f, -0.016550904139876366f, -0.13723134994506836f, 0.08722756803035736f, 0.07113990187644958f, 0.016504576429724693f, 0.025231465697288513f, 0.2273455113172531f, -0.219706729054451f, 0.07241976261138916f, -0.23765526711940765f, -0.3615754544734955f, 0.1618056446313858f, 0.14827783405780792f, -0.14260360598564148f, 0.09799154102802277f, -0.2856265604496002f, -0.01718921773135662f, -0.0018933697137981653f, -0.01888914592564106f, -0.15503691136837006f, -0.016609974205493927f, -0.3809036612510681f, 0.5231474041938782f, 0.4773174524307251f, 0.3512735366821289f, 0.1520901918411255f, -0.07997201383113861f, 0.2355550080537796f, -0.1285884827375412f, 0.16008011996746063f, -0.29827558994293213f, -0.10659922659397125f, 0.20238567888736725f, 0.059369899332523346f, 0.12105080485343933f, 0.07387222349643707f, 0.026926754042506218f, -0.010173865593969822f, 0.12871681153774261f, -0.25360092520713806f, 0.031696174293756485f, -0.0610615611076355f, -0.022946923971176147f, -0.3672536015510559f, -0.004224418196827173f},
  {-0.2420695424079895f, -0.4935620427131653f, -0.1342422068119049f, 0.023410996422171593f, -0.12269759178161621f, -0.11636839061975479f, -0.09503979235887527f, -0.0924774631857872f, 0.07066656649112701f, -0.1376579850912094f, 0.007547897286713123f, -0.005448327399790287f, 0.11979568004608154f, 0.032185446470975876f, 0.22139504551887512f, 0.11099899560213089f, -0.03975846618413925f, 0.5755096077919006f, -0.5021973848342896f, 0.0361594557762146f, -0.02309267595410347f, 0.14665809273719788f, -0.01590004935860634f, 0.37987837195396423f, -0.11880513280630112f, 0.14774610102176666f, 0.42819398641586304f, 0.11444399505853653f, 0.024633245542645454f, 0.2194640189409256f, -0.20624706149101257f, 0.10782897472381592f, 0.06992319971323013f, 0.2635466754436493f, -0.13997295498847961f, -0.4959874749183655f, -0.007880446501076221f, -0.08505722135305405f, 0.03578251227736473f, -0.007025169208645821f, -0.2053091675043106f, -0.40702831745147705f, -0.09248319268226624f, -0.1158476397395134f, 0.1708131730556488f, -0.08826164156198502f, -0.007745522074401379f, -0.0029069234151393175f, -0.07386072725057602f, -0.21069087088108063f, -0.09925916790962219f, -0.14562110602855682f, 0.1115250214934349f, -0.05616641044616699f, -0.2376936823129654f, 0.0072203706949949265f, 0.5562872290611267f, 0.20701941847801208f, 0.17702318727970123f, -0.09857946634292603f, -0.11335720866918564f, 0.11741704493761063f, -0.026213185861706734f, -0.1642100065946579f},
  {0.26179617643356323f, 0.22752021253108978f, 0.22787462174892426f, 0.0038929677102714777f, -0.34991925954818726f, 0.14478252828121185f, -0.2865665853023529f, 0.07154553383588791f, 0.04186362028121948f, 0.1635804921388626f, -0.0498356856405735f, -0.006628792267292738f, -0.30452960729599f, 0.14842627942562103f, 0.1090189665555954f, 0.345541775226593f, -0.1493290662765503f, 0.07364404946565628f, 0.03772694244980812f, -0.13880780339241028f, 0.5221688747406006f, -0.17596115171909332f, -0.08805166929960251f, 0.03611969202756882f, -0.08790026605129242f, -0.21884089708328247f, -0.25780436396598816f, -0.11061277985572815f, 0.055823151022195816f, -0.017201293259859085f, 0.21877695620059967f, -0.18388739228248596f, 0.04556034132838249f, 0.18605749309062958f, -0.24295896291732788f, -0.1416567713022232f, -0.18675722181797028f, 0.19871807098388672f, -0.06413254141807556f, 0.01800859533250332f, 0.06285379081964493f, 0.1417899876832962f, 0.053146325051784515f, -0.21804608404636383f, 0.17255648970603943f, 0.10268580168485641f, 0.16198045015335083f, 0.020068470388650894f, 0.6443179845809937f, 0.03389842063188553f, 0.36930331587791443f, -0.3251079022884369f, -0.11474147439002991f, -0.08744441717863083f, 0.29588600993156433f, 0.14393669366836548f, 0.1754428893327713f, 0.08329161256551743f, -0.029120726510882378f, 0.07437679916620255f, -0.21556371450424194f, 0.029984576627612114f, -0.14286814630031586f, 0.24998028576374054f},
  {0.05080326646566391f, -0.20929400622844696f, -0.31482475996017456f, 0.06160871684551239f, -0.026331990957260132f, -0.07889895886182785f, -0.07400491833686829f, 0.1844024509191513f, -0.21820035576820374f, 0.264856219291687f, 0.48018568754196167f, -0.277218222618103f, 0.010014203377068043f, -0.14025603234767914f, 0.003143961075693369f, 0.29763883352279663f, 0.1681378334760666f, 0.3736326992511749f, -0.2597789764404297f, 0.17234426736831665f, -0.1405636966228485f, 0.030383503064513206f, 0.33265405893325806f, 0.18240338563919067f, -0.023911837488412857f, 0.20668120682239532f, 0.14178426563739777f, -0.10334379971027374f, -0.03303048014640808f, -0.04285832867026329f, -0.12921260297298431f, -0.04389882832765579f, 0.29396742582321167f, -0.149663046002388f, 0.035607125610113144f, -0.16160200536251068f, 0.1955617070198059f, 0.08657868206501007f, -0.11843900382518768f, -0.18413867056369781f, -0.19991031289100647f, -0.0919828861951828f, 0.147890105843544f, 0.32946088910102844f, 0.10061293095350266f, -0.0640401691198349f, -0.013660728000104427f, 0.2119114249944687f, -0.22057569026947021f, 0.49363309144973755f, 0.19729965925216675f, 0.37348297238349915f, -0.42973604798316956f, 0.24319303035736084f, -0.00838023517280817f, -0.19444483518600464f, -0.3060186505317688f, 0.32312098145484924f, -0.1262657195329666f, -0.060800667852163315f, 0.0007373237167485058f, -0.1955215334892273f, 0.13591670989990234f, 0.16090966761112213f},
  {-0.33193978667259216f, 0.41495272517204285f, -0.024894610047340393f, 0.35207557678222656f, 0.04535780847072601f, -0.009538869373500347f, -0.09147392958402634f, 0.08952078223228455f, 0.35467714071273804f, -0.06022030860185623f, -0.025013476610183716f, -0.12905265390872955f, -0.20025867223739624f, 0.3414294421672821f, -0.01768931746482849f, 0.09327283501625061f, 0.12608596682548523f, 0.25888150930404663f, 0.19696293771266937f, 0.10814841091632843f, 0.23245665431022644f, 0.10434621572494507f, 0.20751485228538513f, -0.10154084116220474f, -0.08292467892169952f, 0.19434039294719696f, -0.3515845835208893f, 0.14437954127788544f, 0.12001176923513412f, 0.15487979352474213f, 0.12565529346466064f, -0.22028416395187378f, 0.002732000080868602f, -0.2063111513853073f, 0.14819565415382385f, 0.4286845028400421f, -0.16532061994075775f, -0.18103641271591187f, 0.2793978750705719f, 0.09904364496469498f, -0.19672785699367523f, 0.10611815750598907f, 0.2707429528236389f, -0.3465898334980011f, -0.23872841894626617f, -0.10286222398281097f, 0.07083378732204437f, -0.1485115885734558f, 0.18451158702373505f, -0.1255408078432083f, -0.312855988740921f, 0.8335073590278625f, -0.23537778854370117f, -0.07242238521575928f, -0.06278010457754135f, -0.018948014825582504f, -0.11954580992460251f, -0.0028202079702168703f, -0.3136086165904999f, -0.08519323170185089f, -0.20385006070137024f, -0.2516781687736511f, 0.25267210602760315f, -0.06725803762674332f},
  {-0.10408812016248703f, 0.6142842173576355f, 0.12071777880191803f, 0.10616834461688995f, 0.6444358229637146f, 0.14229229092597961f, -0.10482805967330933f, -0.10540436953306198f, -0.1932690441608429f, -0.2960229516029358f, -0.08357100933790207f, 0.05834256857633591f, -0.10591612756252289f, 0.1122559905052185f, -0.23767471313476562f, 0.4100836217403412f, 0.21522003412246704f, 0.07683010399341583f, -0.10977213829755783f, -0.3207773268222809f, 0.13119764626026154f, 0.21735882759094238f, 0.013714429922401905f, -0.016071762889623642f, -0.03727402538061142f, -0.11356057971715927f, -0.5033025741577148f, 0.21395309269428253f, -0.10491140186786652f, -0.13300549983978271f, -0.05193926766514778f, 0.014268770813941956f, 0.38799524307250977f, 0.10152570903301239f, 0.06735328584909439f, 0.16038289666175842f, -0.024434799328446388f, -0.005229220259934664f, -0.2763678729534149f, -0.1421799510717392f, -0.07366499304771423f, 0.3016952872276306f, -0.010481932200491428f, -0.15567757189273834f, -0.3447319567203522f, -0.049604546278715134f, -0.31703051924705505f, 0.04097471758723259f, -0.05120953544974327f, -0.038074079900979996f, 0.1150134950876236f, -0.12890705466270447f, 0.3498997688293457f, 0.1955329328775406f, -0.0769367590546608f, 0.14794455468654633f, -0.24836674332618713f, -0.24751892685890198f, 0.024936819449067116f, 0.34076598286628723f, 0.06519164890050888f, 0.1592913419008255f, 0.16617050766944885f, -0.20649875700473785f},
  {-0.19176730513572693f, -0.151084765791893f, -0.0022284763399511576f, -0.04819619655609131f, 0.43026474118232727f, -0.14470364153385162f, -0.09342093020677567f, 0.1894301474094391f, 0.026548540219664574f, 0.07856401801109314f, 0.04130856320261955f, -0.15605148673057556f, 0.20100852847099304f, 0.281919926404953f, -0.06642178446054459f, 0.2693338990211487f, -0.30544665455818176f, 0.05174329876899719f, -0.0983491837978363f, 0.18178017437458038f, 0.16521865129470825f, 0.3163197338581085f, 0.09669654071331024f, -0.15722928941249847f, -0.40684452652931213f, 0.1747342050075531f, -0.09861785173416138f, -0.10069093108177185f, -0.22372345626354218f, 0.18058526515960693f, -0.20093640685081482f, 0.02146345004439354f, -0.0652397871017456f, 0.1416400820016861f, 0.6990829706192017f, 0.07510293275117874f, 0.11829410493373871f, -0.28981396555900574f, 0.07223828881978989f, -0.18802480399608612f, -0.04661257565021515f, 0.14604344964027405f, 0.3050667643547058f, 0.03618922457098961f, -0.32032644748687744f, 0.4942391514778137f, 0.01129339262843132f, 0.1603250801563263f, -0.06276064366102219f, 0.04555067792534828f, -0.02343408577144146f, -0.118458092212677f, 0.20315009355545044f, 0.05719063803553581f, 0.003783082589507103f, 0.023202097043395042f, -0.06986574083566666f, 0.03480933979153633f, -0.1487940549850464f, -0.3335217237472534f, 0.18733297288417816f, -0.014908035285770893f, -0.27935293316841125f, 0.0836246982216835f},
  {0.040594056248664856f, 0.35672128200531006f, -0.09791106730699539f, -0.032582446932792664f, -0.20142212510108948f, 0.3833257853984833f, 0.2742263674736023f, 0.06386566907167435f, 0.056664593517780304f, -0.1156468316912651f, 0.16351397335529327f, -0.04418947547674179f, 0.06032727658748627f, 0.19135139882564545f, -0.024488700553774834f, 0.12066465616226196f, -0.12175922095775604f, -0.45117512345314026f, -0.036292675882577896f, -0.14898177981376648f, 0.2846214771270752f, 0.15455980598926544f, 0.2096330225467682f, -0.16023196280002594f, 0.1539173275232315f, 0.28003984689712524f, 0.15941058099269867f, -0.0022563161328434944f, 0.040286097675561905f, -0.44071945548057556f, 0.1532541662454605f, 0.2628727853298187f, -0.1824088990688324f, -0.07065365463495255f, 0.029773732647299767f, 0.10808403789997101f, 0.12545694410800934f, 0.19816838204860687f, -0.5759628415107727f, -0.13980893790721893f, 0.1783754825592041f, 0.0562359057366848f, -0.06939201056957245f, -0.00047295764670707285f, 0.06013896316289902f, 0.34042733907699585f, -0.02324196882545948f, -0.2168736308813095f, -0.18413877487182617f, 0.1805897057056427f, 0.03625909239053726f, 0.3769054114818573f, -0.012232616543769836f, -0.291873037815094f, -0.2854859232902527f, 0.32181116938591003f, 0.28466472029685974f, 0.0959930345416069f, -0.19867220520973206f, -0.042015526443719864f, -0.3309270441532135f, -0.18900041282176971f, -0.04277373477816582f, 0.010550386272370815f},
  {0.017858393490314484f, 0.33031249046325684f, -0.1822744607925415f, 0.3771153688430786f, -0.06278232485055923f, 0.032290756702423096f, 0.03482642397284508f, -0.07585516571998596f, 0.19419245421886444f, 0.28787609934806824f, 0.07173638790845871f, -0.0226163100451231f, 0.024981044232845306f, 0.22757190465927124f, 0.4286160171031952f, -0.02017192356288433f, 0.12070886790752411f, -0.31549206376075745f, 0.0958905890583992f, -0.09514113515615463f, -0.29646018147468567f, 0.11057106405496597f, -0.08999418467283249f, -0.29418009519577026f, 0.08010468631982803f, 0.250732958316803f, 0.06591080874204636f, -0.3782266676425934f, 0.07571184635162354f, -0.21036776900291443f, 0.14864513278007507f, -0.08690043538808823f, 0.24415023624897003f, 0.21324053406715393f, -0.004689870402216911f, 0.16582244634628296f, -0.007441675290465355f, -0.18711823225021362f, -0.5410513877868652f, 0.08362764865159988f, -0.20830579102039337f, 0.06827936321496964f, -0.22746913135051727f, 0.0012761561665683985f, 0.31788235902786255f, -0.031008752062916756f, 0.3205685317516327f, 0.0419856533408165f, 0.30842652916908264f, -0.30322346091270447f, 0.04018823802471161f, -0.14446349442005157f, 0.08580509573221207f, -0.20626115798950195f, -0.03591899201273918f, 0.19880786538124084f, -0.08403493463993073f, 0.048872560262680054f, -0.028614429756999016f, -0.06359955668449402f, 0.2598513662815094f, 0.012193714268505573f, 0.1298457384109497f, 0.11239027231931686f},
  {0.12967491149902344f, 0.1908927857875824f, -0.23940140008926392f, 0.1396338790655136f, 0.6895589828491211f, -0.08580983430147171f, 0.0389547273516655f, 0.1456240713596344f, 0.010870561935007572f, 0.015576440840959549f, 0.26433107256889343f, 0.32832223176956177f, 0.08010976016521454f, 0.10318295657634735f, -0.3145425021648407f, -0.006641722284257412f, -0.4026150703430176f, 0.027161981910467148f, -0.2250923067331314f, -0.12257654219865799f, -0.07770698517560959f, -0.18542616069316864f, 0.0269311536103487f, 0.022733516991138458f, 0.0751325786113739f, -0.1079770028591156f, -0.1162317767739296f, -0.011787396855652332f, -0.0073926071636378765f, 0.0701022744178772f, 0.1945265531539917f, -0.043577563017606735f, -0.02385268546640873f, 0.08289232850074768f, 0.2906322479248047f, -0.21825352311134338f, -0.05306052416563034f, -0.07790818810462952f, 0.1526210457086563f, 0.14099164307117462f, 0.08957215398550034f, -0.24812276661396027f, -0.05319231376051903f, 0.02661737985908985f, -0.29017961025238037f, -0.08107464760541916f, 0.36784854531288147f, -0.06001485884189606f, -0.16627375781536102f, -0.10570267587900162f, -0.15877720713615417f, 0.21464738249778748f, -0.05705294758081436f, 0.21607999503612518f, 0.253012478351593f, 0.3502606749534607f, 0.29645103216171265f, -0.0007945728721097112f, -0.4324294924736023f, 0.2093990445137024f, -0.005071790423244238f, 0.16141833364963531f, 0.19770777225494385f, -0.032857783138751984f},
  {0.025486620143055916f, -0.0587342269718647f, -0.35412684082984924f, -0.23615457117557526f, 0.37623679637908936f, -0.1450141817331314f, -0.12246324121952057f, 0.16383177042007446f, 0.18983487784862518f, -0.06414297968149185f, 0.019856305792927742f, 0.3221132159233093f, -0.06229202821850777f, 0.005015746224671602f, 0.10978670418262482f, -0.1927720308303833f, 0.04236897453665733f, -0.029304394498467445f, -0.17779281735420227f, 0.1288180947303772f, 0.14632946252822876f, -0.11499550193548203f, 0.2501783072948456f, -0.2373344749212265f, 0.2748771905899048f, 0.10519594699144363f, -0.04464734345674515f, -0.04383690655231476f, 0.4269639253616333f, 0.16581512987613678f, -0.6119778156280518f, -0.13242009282112122f, 0.17775046825408936f, 0.04590539261698723f, -0.20453348755836487f, 0.22230936586856842f, -0.13318650424480438f, -0.02234613709151745f, 0.08243000507354736f, 0.010347671806812286f, 0.14621008932590485f, 0.2793424725532532f, 0.18549178540706635f, 0.08860831707715988f, -0.07176914066076279f, 0.34377551078796387f, -0.36330604553222656f, -0.09708280861377716f, 0.19011594355106354f, 0.36475908756256104f, 0.005865438841283321f, 0.15918396413326263f, -0.14114297926425934f, 0.10475654155015945f, -0.15336862206459045f, -0.08864153921604156f, 0.005026598460972309f, -0.0021047077607363462f, -0.07615937292575836f, 0.3340144455432892f, 0.2390718013048172f, 0.19044019281864166f, -0.056536443531513214f, -0.1760893017053604f},
  {-0.22612999379634857f, 0.1630033254623413f, 0.11024590581655502f, 0.07821884751319885f, -0.09113312512636185f, 0.3810330033302307f, -0.27740949392318726f, 0.17779961228370667f, -0.13044191896915436f, 0.09164731204509735f, -0.024018125608563423f, -0.33040252327919006f, -0.19391202926635742f, 0.07692018896341324f, -0.22469843924045563f, 0.1470893770456314f, 0.005947816651314497f, 0.03741162642836571f, 0.13530787825584412f, 0.09286154061555862f, -0.12154325097799301f, 0.17441095411777496f, 0.3606184124946594f, -0.5446116924285889f, 0.1676109880208969f, -0.3048722445964813f, 0.21848061680793762f, 0.10911209881305695f, 0.05123654380440712f, -0.15449486672878265f, 0.3065629303455353f, -0.11950643360614777f, -0.2123277485370636f, 0.0810200497508049f, 0.1468331515789032f, -0.20838725566864014f, -0.006071215029805899f, 0.0003968453675042838f, -0.04761090129613876f, -0.11185671389102936f, 0.03919336944818497f, -0.0800163596868515f, 0.16911941766738892f, -0.0010473524453118443f, 0.14615556597709656f, -0.29154565930366516f, 0.21566373109817505f, -0.12569253146648407f, 0.2791191041469574f, -0.24910825490951538f, 0.057254236191511154f, -0.24398620426654816f, -0.06748499721288681f, -0.1426955908536911f, -0.045687656849622726f, 0.002470187144353986f, 0.17520970106124878f, -0.40796712040901184f, 0.012493466027081013f, 0.19359001517295837f, 0.18806244432926178f, 0.2503552734851837f, -0.24884656071662903f, -0.36062875390052795f},
  {-0.3108220398426056f, -0.004479877185076475f, 0.03532407060265541f, 0.27344998717308044f, -0.059682492166757584f, 0.0477650910615921f, 0.24982783198356628f, 0.29778409004211426f, -0.15173456072807312f, 0.25467449426651f, -0.08633579313755035f, 0.13454897701740265f, 0.066945381462574f, 0.08192724734544754f, 0.09115200489759445f, 0.19946835935115814f, 0.15342509746551514f, -0.11280860006809235f, -0.30459317564964294f, 0.21473059058189392f, -0.04727333039045334f, 0.03970285877585411f, -0.05238141864538193f, -0.0302753709256649f, 0.07319638133049011f, -0.2736278772354126f, 0.11401635408401489f, 0.23706410825252533f, -0.10805997252464294f, 0.09808161109685898f, -0.07345865666866302f, 0.2926173210144043f, -0.08671832829713821f, 0.07047731429338455f, -0.15434564650058746f, 0.1415073126554489f, 0.14984552562236786f, 0.260305792093277f, 0.47850435972213745f, 0.26298797130584717f, -0.030935902148485184f, -0.2814241945743561f, -0.12241429090499878f, -0.016114264726638794f, 0.04953312128782272f, 0.16819879412651062f, -0.13831976056098938f, -0.09379949420690536f, -0.029154498130083084f, -0.12459666281938553f, 0.24496965110301971f, -0.6566877961158752f, 0.07327859848737717f, -0.1270023137331009f, -0.10277509689331055f, -0.19484403729438782f, -0.09358391165733337f, 0.24286526441574097f, -0.13257792592048645f, 0.40459325909614563f, 0.09046436846256256f, -0.17356163263320923f, -0.0006392751238308847f, 0.2357410341501236f},
  {-0.07855674624443054f, 0.05691888928413391f, -0.07067283987998962f, 0.23135779798030853f, 0.09449157863855362f, -0.11087563633918762f, 0.18206904828548431f, 0.18625080585479736f, -0.08341887593269348f, 0.05952746048569679f, -0.01568799465894699f, -0.07853426039218903f, 0.021318888291716576f, 0.02254747413098812f, -0.16272738575935364f, -0.1188441589474678f, -0.0008416111813858151f, 0.0954107716679573f, 0.019727079197764397f, -0.32349884510040283f, 0.04597010463476181f, 0.32137036323547363f, 0.004685303196310997f, -0.060451164841651917f, 0.2989928424358368f, 0.3446221351623535f, 0.21291829645633698f, -0.11032164096832275f, -0.1680159568786621f, -0.2706456184387207f, -0.07184464484453201f, -0.18336480855941772f, 0.27398914098739624f, 0.1308533251285553f, 0.2061246633529663f, -0.01740543358027935f, -0.3168048858642578f, 0.1269538253545761f, 0.3455760180950165f, -0.005486742593348026f, 0.20866604149341583f, 0.2536785304546356f, 0.24103480577468872f, 0.07100860029459f, -0.4910738170146942f, 0.09489013254642487f, 0.16611717641353607f, -0.18495683372020721f, 0.04179004952311516f, 0.06930386275053024f, -0.06992262601852417f, 0.17059354484081268f, -0.06327535957098007f, 0.06473546475172043f, -0.0026351495180279016f, 0.09572578966617584f, -0.26321905851364136f, 0.2192743718624115f, 0.4066413938999176f, 0.05109356716275215f, -0.3643490672111511f, 0.24060317873954773f, 0.01877506636083126f, 0.05357682704925537f},
  {0.13538461923599243f, 0.6048915386199951f, 0.12440861761569977f, 0.12085503339767456f, -0.2929035425186157f, 0.23707590997219086f, 0.04475381597876549f, -0.22903333604335785f, 0.31451892852783203f, 0.16867415606975555f, 0.24757623672485352f, -0.19166256487369537f, 0.08441054075956345f, 0.10057470947504044f, -0.2602481245994568f, -0.36591044068336487f, 0.16005635261535645f, 0.13346347212791443f, -0.28626057505607605f, 0.06235348433256149f, 0.2945977449417114f, 0.22932784259319305f, 0.06134995073080063f, -0.31277740001678467f, 0.119028240442276f, -0.45823684334754944f, -0.42818883061408997f, -0.021929673850536346f, -0.3335241973400116f, 0.0048896619118750095f, 0.09414011985063553f, 0.3551676869392395f, 0.20931486785411835f, -0.121159128844738f, -0.04700131714344025f, -0.013023460283875465f, 0.2236621379852295f, -0.26118481159210205f, 0.19185781478881836f, 0.14020629227161407f, 0.06639551371335983f, 0.5031049251556396f, -0.01336195133626461f, -0.13372384011745453f, 0.19722424447536469f, -0.0697958692908287f, 0.07883075624704361f, 0.1348489373922348f, 0.44692423939704895f, -0.3816160559654236f, 0.12540477514266968f, 0.3186337649822235f, -0.14306418597698212f, -0.15156248211860657f, 0.08470045775175095f, 0.33968600630760193f, 0.028370071202516556f, -0.06749855726957321f, 0.13797038793563843f, -0.08626309782266617f, 0.03728819265961647f, 0.07153933495283127f, -0.14301276206970215f, -0.14942285418510437f},
  {-0.11353889107704163f, -0.2310873121023178f, 0.12279939651489258f, -0.20742230117321014f, -0.43757927417755127f, -0.21587973833084106f, -0.1445222795009613f, 0.14414726197719574f, -0.0498129241168499f, -0.17262428998947144f, 0.0987202450633049f, 0.06761737912893295f, -0.046130526810884476f, 0.49913597106933594f, 0.07405652105808258f, -0.031062902882695198f, -0.013065177947282791f, -0.37941333651542664f, 0.09209064394235611f, -0.0450080931186676f, 0.3785887658596039f, 0.0253277700394392f, -0.18023563921451569f, -0.08140507340431213f, 0.08837780356407166f, -0.12383560836315155f, 0.18355263769626617f, 0.027423135936260223f, 0.16561497747898102f, -0.3467199504375458f, -0.08197830617427826f, 0.11307484656572342f, 0.2856960594654083f, 0.0009197188192047179f, -0.06376303732395172f, -0.1416345089673996f, 0.23272351920604706f, 0.21879734098911285f, -0.08807315677404404f, 0.00405958341434598f, 0.2851932644844055f, 0.15359291434288025f, -0.4350185990333557f, 0.14410194754600525f, 0.3012954294681549f, -0.34014391899108887f, 0.32721224427223206f, -0.09833947569131851f, -0.0007753737736493349f, -0.09573657810688019f, -0.09016881883144379f, 0.06530261784791946f, 0.3154444396495819f, 0.11685255169868469f, 0.03134945034980774f, -0.3375999331474304f, -0.10864458233118057f, 0.1524076908826828f, -0.24089621007442474f, -0.07972358167171478f, 0.09972327202558517f, 0.06838204711675644f, 0.14409659802913666f, -0.12479215860366821f},
  {-0.06491542607545853f, -0.41472744941711426f, -0.30283215641975403f, -0.23226478695869446f, 0.03908107057213783f, -0.16518160700798035f, 0.17316915094852448f, -0.03567921742796898f, -0.0505637563765049f, -0.030812086537480354f, -0.21485309302806854f, 0.05446494743227959f, -0.14785130321979523f, -0.05218229070305824f, 0.09653989225625992f, -0.06749214231967926f, -0.14902245998382568f, -0.14099262654781342f, 0.13831599056720734f, 0.11611603945493698f, -0.028732826933264732f, 0.255467027425766f, -0.17409737408161163f, 0.21574673056602478f, -0.10265732556581497f, 0.1126786544919014f, -0.22696562111377716f, 0.06887170672416687f, 0.1453796625137329f, -0.6769113540649414f, -0.38165026903152466f, 0.25070253014564514f, 0.006867737974971533f, -0.21748864650726318f, -0.05214324966073036f, -0.3066415786743164f, -0.33488091826438904f, 0.4726431965827942f, -0.07778996974229813f, 0.3438645601272583f, -0.02402162179350853f, -0.45939603447914124f, -0.059216488152742386f, 0.08883972465991974f, 0.4922647774219513f, -0.10601729154586792f, 0.1852409988641739f, -0.0836656242609024f, 0.046604905277490616f, 0.07928730547428131f, 0.12010166049003601f, -0.26620128750801086f, 0.05120855197310448f, -0.0021449457854032516f, -0.012716373428702354f, 0.30276376008987427f, -0.12067148834466934f, -0.043659817427396774f, 0.010243497788906097f, -0.13222628831863403f, 0.20564155280590057f, -0.21215702593326569f, -0.06444142013788223f, -0.17895175516605377f},
  {-0.24641239643096924f, -0.20523600280284882f, 0.01815715990960598f, -0.029951442033052444f, -0.19425587356090546f, 0.027208324521780014f, -0.08269111067056656f, 0.07621303200721741f, -0.1617942750453949f, -0.1393229216337204f, -0.07625231146812439f, -0.13972941040992737f, 0.33515465259552f, 0.021895650774240494f, -0.3702797293663025f, 0.08166555315256119f, 0.2333359718322754f, -0.3968772292137146f, 0.049513913691043854f, 0.151435986161232f, -0.1840723752975464f, -0.1976841539144516f, -0.01995154842734337f, -0.004624958615750074f, -0.058287713676691055f, 0.13841767609119415f, -0.05684074014425278f, -0.53188556432724f, 0.21412044763565063f, -0.3960319459438324f, -0.039598505944013596f, 0.14902502298355103f, 0.2326805740594864f, 0.3141738474369049f, -0.18592378497123718f, 0.009831953793764114f, -0.034136250615119934f, 0.12434443086385727f, 0.21239826083183289f, 0.01671052910387516f, -0.1198456883430481f, -0.0770249292254448f, 0.055461395531892776f, -0.08127615600824356f, 0.06684402376413345f, 0.1159769743680954f, -0.0627584233880043f, 0.22136951982975006f, 0.07630006223917007f, 0.4327705502510071f, -0.2432062327861786f, 0.48863717913627625f, 0.2361108660697937f, -0.23713263869285583f, -0.012266059406101704f, 0.3145647943019867f, 0.07387525588274002f, -0.11825543642044067f, -0.09924457967281342f, 0.02075813151896f, 0.007699537556618452f, 0.08191411942243576f, 0.11495086550712585f, 0.2812679409980774f},
  {-0.0457385815680027f, -0.1183389350771904f, -0.2531323730945587f, 0.01836557500064373f, -0.15856139361858368f, 0.10437504202127457f, -0.0930938571691513f, -0.028434593230485916f, 0.173629492521286f, -0.23592664301395416f, -0.20360611379146576f, 0.14161156117916107f, -0.015486462973058224f, 0.010080619715154171f, 0.057431336492300034f, 0.00779884634539485f, 0.2897736430168152f, 0.2589898705482483f, 0.13511325418949127f, 0.11118577420711517f, -0.05893578380346298f, -0.07017973065376282f, -0.27790823578834534f, -0.17720183730125427f, 0.11158542335033417f, 0.16183502972126007f, -0.055625926703214645f, -0.10037315636873245f, 0.13034404814243317f, -0.3390103280544281f, 0.6102122068405151f, 0.273177832365036f, 0.19600854814052582f, -0.11275694519281387f, -0.09183622896671295f, -0.08058412373065948f, -0.1102353036403656f, -0.1388612687587738f, 0.14672985672950745f, 0.040465857833623886f, 0.12284764647483826f, -0.07020056247711182f, -0.44956377148628235f, 0.17038877308368683f, -0.14931358397006989f, 0.14058999717235565f, -0.02412116900086403f, -0.060657303780317307f, 0.01012440212070942f, -0.1307896375656128f, 0.41628792881965637f, -0.13151641190052032f, -0.043718621134757996f, 0.41576704382896423f, 0.1238786056637764f, -0.08619705587625504f, 0.2658153474330902f, -0.23668691515922546f, -0.23214875161647797f, -0.19909760355949402f, -0.07456499338150024f, 0.020336775109171867f, -0.30348536372184753f, -0.026310289278626442f},
  {-0.012192939408123493f, -0.12134454399347305f, 0.1801646500825882f, -0.013711477629840374f, -0.28005582094192505f, -0.0025611831806600094f, 0.2354734092950821f, 0.12562070786952972f, -0.0753118246793747f, -0.010393606498837471f, -0.23808211088180542f, -0.1299271583557129f, -0.2031712830066681f, -0.05755027011036873f, 0.053119201213121414f, -0.4274965524673462f, -0.1121995821595192f, -0.29317161440849304f, -0.24864733219146729f, -0.00020856806077063084f, 0.022916056215763092f, -0.06125228852033615f, -0.050017453730106354f, -0.10864684730768204f, -0.07256915420293808f, 0.10958986729383469f, 0.09036628901958466f, -0.05437280610203743f, -0.008540479466319084f, 0.04674564301967621f, 0.13412795960903168f, -0.26633352041244507f, 0.33916911482810974f, 0.446696937084198f, -0.24347668886184692f, -0.342166006565094f, -0.03486845642328262f, 0.32572034001350403f, -0.14871084690093994f, 0.12638027966022491f, -0.1267756223678589f, -0.4603725075721741f, -0.17722441256046295f, 0.06667092442512512f, 0.5423396825790405f, 0.24626095592975616f, -0.09600137919187546f, 0.05458248779177666f, -0.252816766500473f, 0.05208747833967209f, -0.07584767788648605f, 0.15919162333011627f, -0.12443864345550537f, 0.25537624955177307f, -0.22610853612422943f, -0.0929916501045227f, -0.3100352883338928f, -0.10666300356388092f, -0.20983417332172394f, -0.3068706691265106f, -0.14935250580310822f, -0.11536043882369995f, -0.35500407218933105f, -0.07835788279771805f},
  {-0.20833173394203186f, -0.054143209010362625f, -0.21053463220596313f, -0.1919803023338318f, 0.23169080913066864f, -0.2230714112520218f, 0.2656291723251343f, -0.19186022877693176f, 0.3963504731655121f, -0.1578032225370407f, -0.2636043429374695f, -0.23858186602592468f, 0.057929422706365585f, -0.2165527194738388f, 0.06519939750432968f, 0.015024702996015549f, 0.32553359866142273f, -0.05559319257736206f, -0.016782721504569054f, -0.04594404995441437f, 0.027202803641557693f, -0.18702645599842072f, -0.24374748766422272f, 0.05380168557167053f, 0.22035478055477142f, -0.4852558970451355f, -0.07618653774261475f, -0.06762521713972092f, 0.018112191930413246f, -0.2573673725128174f, -0.4882985055446625f, -0.46249866485595703f, -0.07972463965415955f, 0.15922564268112183f, 0.09118052572011948f, 0.06447107344865799f, 0.23000316321849823f, 0.39425235986709595f, 0.09136905521154404f, -0.25820544362068176f, -0.2511048913002014f, -0.016692915931344032f, 0.05132056400179863f, 0.5167751312255859f, -0.036402784287929535f, 0.23131327331066132f, -0.03576848655939102f, -0.07439973205327988f, -0.13025124371051788f, 0.14332102239131927f, 0.09127935022115707f, -0.39784321188926697f, 0.19698090851306915f, -0.06526689231395721f, 0.03675434738397598f, -0.039840053766965866f, 0.17430859804153442f, 0.23763766884803772f, -0.1393214464187622f, 0.046425748616456985f, -0.05167628824710846f, -0.12813937664031982f, 0.07517967373132706f, -0.22936545312404633f},
  {-0.0707591250538826f, 0.2941674292087555f, 0.05592361465096474f, -0.30456024408340454f, 0.4108681082725525f, 0.019224653020501137f, 0.154048353433609f, -0.14335159957408905f, -0.07563726603984833f, 0.3580441176891327f, 0.09139710664749146f, 0.1080927774310112f, -0.2549618184566498f, 0.04362962022423744f, -0.3564732074737549f, 0.25932592153549194f, 0.01359611563384533f, 0.11107739061117172f, 0.150699183344841f, -0.017625857144594193f, 0.10424427688121796f, 0.09929923713207245f, 0.34566208720207214f, -0.22590717673301697f, -0.08712776005268097f, -0.016286952421069145f, -0.08995819836854935f, 0.006526585668325424f, -0.029604967683553696f, 0.18143707513809204f, 0.13023759424686432f, -0.057599034160375595f, 0.5087525844573975f, -0.28106892108917236f, -0.3338722884654999f, 0.4527747929096222f, 0.017834555357694626f, 0.07709742337465286f, 0.12033011764287949f, -0.25965920090675354f, -0.008638022467494011f, 0.08344712853431702f, 0.11422757804393768f, 0.08395014703273773f, -0.12011401355266571f, 0.20499348640441895f, 0.17772111296653748f, -0.08431635797023773f, -0.024369029328227043f, -0.32897964119911194f, -0.2876431345939636f, 0.19853781163692474f, 0.03011305257678032f, -0.16742001473903656f, 0.026836777105927467f, -0.033132005482912064f, 0.28092002868652344f, 0.055117830634117126f, 0.2023831009864807f, -0.19003012776374817f, 0.1217111200094223f, 0.12183535099029541f, -0.08931931853294373f, 0.31270715594291687f},
  {-0.038769058883190155f, 0.20522630214691162f, 0.018635619431734085f, -0.07042544335126877f, -0.41221991181373596f, -0.13561077415943146f, -0.564662754535675f, 0.006212600041180849f, -0.030314531177282333f, 0.24612431228160858f, 0.23845015466213226f, 0.3459995687007904f, -0.16640523076057434f, -0.052756570279598236f, -0.3551786243915558f, 0.09829525649547577f, 0.08211123943328857f, 0.1487933099269867f, 0.31172215938568115f, -0.20622099936008453f, -0.026354610919952393f, 0.3843752145767212f, -0.030349960550665855f, -0.22266532480716705f, 0.4916856586933136f, -0.08257359266281128f, -0.3743068277835846f, -0.16258399188518524f, -0.09916553646326065f, 0.20499083399772644f, 0.10989095270633698f, -0.04364596679806709f, -0.17428754270076752f, -0.004335400182753801f, 0.03852255642414093f, 0.11840041726827621f, 0.2182294726371765f, -0.08765668421983719f, -0.030520103871822357f, 0.03284400328993797f, -0.10835772007703781f, 0.03778723627328873f, -0.20408476889133453f, 0.04806572571396828f, 0.21544936299324036f, 0.3944110870361328f, -0.06426911056041718f, -0.12574607133865356f, 0.20457246899604797f, -0.16210314631462097f, -0.25897184014320374f, 0.029372969642281532f, 0.034835830330848694f, -0.09559876471757889f, -0.23004844784736633f, 0.228666752576828f, -0.23250949382781982f, 0.003750989679247141f, 0.10535100102424622f, 0.050937701016664505f, -0.1609516143798828f, -0.22830213606357574f, -0.00942453183233738f, 0.027731258422136307f},
  {-0.19286753237247467f, 0.3571493625640869f, -0.2741595208644867f, 0.07038978487253189f, -0.134328231215477f, -0.2611154317855835f, 0.14826950430870056f, -0.048680227249860764f, -0.04399658367037773f, -0.260844886302948f, 0.06247248873114586f, -0.23912212252616882f, -0.30851882696151733f, -0.2505166828632355f, -0.1580687314271927f, -0.01629483327269554f, 0.08118226379156113f, -0.351726770401001f, 0.10950182378292084f, -0.08475121855735779f, 0.058725833892822266f, 0.28225281834602356f, 0.3238507807254791f, 0.10548412054777145f, 0.07690343260765076f, -0.14007720351219177f, 0.12265446782112122f, -0.20316867530345917f, 0.2073509693145752f, 0.24865007400512695f, 0.11887918412685394f, 0.3767433762550354f, 0.028668096289038658f, 0.043763671070337296f, -0.2129216343164444f, -0.007897594012320042f, -0.006041798274964094f, -0.24418090283870697f, -0.10728520154953003f, -0.16049814224243164f, 0.16572877764701843f, 0.06837887316942215f, 0.13066424429416656f, -0.22483235597610474f, 0.08170567452907562f, 0.3890087306499481f, 0.34374043345451355f, 0.10897397994995117f, 0.2655389606952667f, 0.08129510283470154f, 0.002052732976153493f, 0.016545884311199188f, 0.2400095909833908f, 0.1159987673163414f, 0.22696208953857422f, -0.13203108310699463f, -0.13965681195259094f, -0.010410523973405361f, 0.05436505377292633f, 0.09535784274339676f, -0.09516146779060364f, -0.37204909324645996f, 0.026439057663083076f, -0.1057397872209549f},
  {-0.1451776623725891f, -0.2850242555141449f, -0.1834179311990738f, -0.28140220046043396f, -0.04956713318824768f, -0.21470259130001068f, 0.10821933299303055f, 0.02700912021100521f, 0.00043350941268727183f, 0.12993280589580536f, -0.054285965859889984f, 0.20161454379558563f, 0.2775692641735077f, -0.019746849313378334f, -0.18828658759593964f, -0.139861062169075f, 0.08434038609266281f, -0.32458409667015076f, 0.039766501635313034f, -0.32744142413139343f, 0.1415599137544632f, -0.03699352592229843f, 0.09375619888305664f, -0.33406752347946167f, -0.041259765625f, -0.05729030445218086f, -0.1783464550971985f, -0.0818522572517395f, -0.04160459712147713f, -0.029797546565532684f, 0.3118462860584259f, 0.020671900361776352f, -0.028130309656262398f, 0.08582852780818939f, -0.011129048652946949f, 0.05310215801000595f, -0.33607015013694763f, 0.34955692291259766f, -0.2889442443847656f, 0.14231739938259125f, -0.4240264296531677f, 0.36358100175857544f, -0.21459446847438812f, -0.44886720180511475f, -0.1946883499622345f, -0.1965973824262619f, 0.35280027985572815f, 0.19456003606319427f, -0.05745026469230652f, -0.0982947051525116f, 0.40750160813331604f, 0.0086526395753026f, -0.08331190049648285f, -0.012402333319187164f, -0.1176796704530716f, -0.07362620532512665f, 0.10382531583309174f, -0.04919112101197243f, -0.07042035460472107f, 0.09518823772668839f, -0.04381971433758736f, -0.052101828157901764f, 0.07052690535783768f, -0.25377166271209717f},
  {-0.14414729177951813f, -0.077953040599823f, -0.2892334461212158f, -0.0455501526594162f, 0.05168812349438667f, 0.19725219905376434f, -0.1589173972606659f, -0.10934421420097351f, 0.2401099056005478f, 0.20876312255859375f, 0.02426546812057495f, 0.24417221546173096f, 0.09179224818944931f, 0.11831684410572052f, -0.17603935301303864f, -0.24870853126049042f, -0.17753727734088898f, -0.23098748922348022f, -0.1279468536376953f, -0.062484223395586014f, -0.19913673400878906f, 0.40131598711013794f, -0.27855244278907776f, 0.16050811111927032f, -0.10330389440059662f, 0.0956474021077156f, 0.279880553483963f, 0.2988966107368469f, 0.4103754460811615f, -0.056691281497478485f, -0.019312530755996704f, -0.240467831492424f, 0.13701874017715454f, -0.06043090671300888f, 0.07746738940477371f, 0.05432353541254997f, -0.21632680296897888f, 0.09862629324197769f, 0.016686871647834778f, -0.2707018256187439f, -0.03996063396334648f, -0.14933864772319794f, 0.07724976539611816f, 0.1988181620836258f, 0.037982478737831116f, -0.005582739133387804f, -0.21515728533267975f, 0.49564436078071594f, -0.044060610234737396f, 0.2875900864601135f, 0.200100839138031f, 0.6393633484840393f, 0.26443156599998474f, -0.1718556135892868f, 0.16233235597610474f, -0.1874343901872635f, -0.09816503524780273f, 0.09359283000230789f, -0.013862879946827888f, 0.06595855206251144f, -0.22296753525733948f, -0.1583801805973053f, -0.07519160211086273f, 0.15164558589458466f},
  {-0.05869034305214882f, -0.08711026608943939f, 0.10974139720201492f, 0.007168333977460861f, 0.15320731699466705f, -0.002022686181589961f, 0.11459141224622726f, -0.02382940985262394f, 0.19803020358085632f, 0.315952867269516f, 0.18661510944366455f, -0.1853998452425003f, -0.037232525646686554f, 0.15455272793769836f, -0.3373044431209564f, -0.0047730193473398685f, 0.13013635575771332f, 0.11842793226242065f, -0.15988238155841827f, -0.3270474672317505f, -0.05039964243769646f, -0.02513926662504673f, -0.2263738214969635f, -0.11144658178091049f, 0.10252228379249573f, 0.06729303300380707f, -0.14621004462242126f, 0.13808336853981018f, -0.2527497410774231f, -0.05110619217157364f, -0.13450953364372253f, 0.1360349953174591f, -0.17630572617053986f, -0.0842047780752182f, -0.31220579147338867f, 0.2947638928890228f, 0.14317567646503448f, -0.1996215432882309f, -0.3196374177932739f, -0.10163316130638123f, 0.15460778772830963f, -0.17542384564876556f, 0.360418438911438f, -0.0034625495318323374f, -0.194780632853508f, 0.21796442568302155f, 0.24886836111545563f, -0.03900609537959099f, 0.5298900008201599f, 0.1614956557750702f, -0.0722324550151825f, 0.17697782814502716f, 0.1511838287115097f, 0.05980204790830612f, -0.28537362813949585f, -0.2545008361339569f, -0.151182159781456f, -0.35581138730049133f, -0.24393124878406525f, 0.01867423579096794f, -0.1668415069580078f, 0.13839168846607208f, 0.11380957067012787f, 0.11522169411182404f},
  {0.35464051365852356f, -0.47335541248321533f, -0.1532832682132721f, -0.13575443625450134f, -0.4927717447280884f, 0.07824436575174332f, 0.2559625208377838f, 0.0894569680094719f, -0.05916046351194382f, -0.1620485931634903f, -0.10714326053857803f, -0.28777578473091125f, 0.12642796337604523f, -0.020528336986899376f, 0.006449283100664616f, -0.04289036616683006f, -0.06215311214327812f, -0.4059240221977234f, -0.15812216699123383f, 0.17893624305725098f, 0.19427995383739471f, 0.5085552334785461f, -0.030223960056900978f, 0.3003727197647095f, 0.320152223110199f, 0.3008630871772766f, 0.11883420497179031f, 0.11141934990882874f, -0.20270897448062897f, -0.33407190442085266f, 0.09170964360237122f, -0.3264812231063843f, -0.07414139062166214f, 0.1239609345793724f, -0.19665636122226715f, 0.2202293425798416f, -0.10318837314844131f, 0.06808951497077942f, -0.052570853382349014f, 0.16031505167484283f, -0.40871331095695496f, -0.23369064927101135f, -0.386639267206192f, 0.14569972455501556f, 0.4471178650856018f, 0.14112336933612823f, 0.0029424503445625305f, 0.14248256385326385f, 0.0014232886023819447f, 0.2602100670337677f, -0.19567950069904327f, -0.05539107322692871f, 0.06052929162979126f, 0.1430700421333313f, 0.2880792021751404f, -0.22173462808132172f, 0.25508424639701843f, -0.09406039118766785f, -0.05468863621354103f, 0.09068991988897324f, 0.30127277970314026f, -0.004336195066571236f, 0.16613098978996277f, -0.03331535682082176f},
  {-0.03997122123837471f, -0.4109206199645996f, -0.02760883793234825f, 0.1683075726032257f, -0.1362016797065735f, 0.2945258617401123f, 0.31021612882614136f, 0.381928414106369f, 0.08696988224983215f, -0.14747528731822968f, 0.20132526755332947f, 0.2900591492652893f, 0.017826145514845848f, -0.2756602168083191f, 0.15619710087776184f, -0.07058205455541611f, 0.047010570764541626f, 0.39674311876296997f, -0.14002075791358948f, 0.04700925573706627f, 0.2168942391872406f, -0.05659201368689537f, -0.030343247577548027f, 0.07212039828300476f, -0.05929974839091301f, -0.13575464487075806f, -0.12101054191589355f, 0.04942280799150467f, 0.1550549417734146f, 0.23297539353370667f, 0.0980975553393364f, 0.09272103756666183f, 0.08854130655527115f, -0.05768107995390892f, 0.28671199083328247f, 0.06375186145305634f, 0.16551050543785095f, -0.15930017828941345f, 0.05124734342098236f, -0.6737790107727051f, -0.29984673857688904f, -0.2655780017375946f, 0.06832963228225708f, -0.13187481462955475f, 0.273505836725235f, -0.10722962766885757f, 0.17623436450958252f, -0.20152819156646729f, 0.026770057156682014f, 0.20858240127563477f, -0.24218347668647766f, -0.0772239938378334f, -0.012441692873835564f, -0.040691133588552475f, -0.06333450227975845f, 0.0037531820125877857f, -0.23741038143634796f, 0.03269394487142563f, 0.26724007725715637f, -0.028064584359526634f, 0.02565716579556465f, 0.08030384033918381f, -0.16501258313655853f, 0.2186315953731537f},
  {0.06996196508407593f, 0.4304130971431732f, -0.0030668831896036863f, -0.10576020926237106f, 0.2799862027168274f, -0.1545255035161972f, 0.016399335116147995f, -0.21185779571533203f, -0.06615115702152252f, -0.16652126610279083f, -0.042973317205905914f, 0.2272811233997345f, 0.34146976470947266f, 0.0666688084602356f, -0.16777357459068298f, -0.008317089639604092f, 0.09802763164043427f, 0.335958868265152f, 0.1299484223127365f, 0.18353760242462158f, 0.15331736207008362f, -0.20177356898784637f, 0.15932108461856842f, 0.1461799144744873f, 0.048486899584531784f, -0.033541686832904816f, 0.14264096319675446f, 0.1669674515724182f, -0.32817772030830383f, 0.2838802933692932f, 0.1262306571006775f, -0.06284351646900177f, 0.08846750855445862f, -0.11190835386514664f, 0.21522067487239838f, -0.43109995126724243f, -0.14099593460559845f, 0.03879956528544426f, 0.05018758401274681f, -0.18840892612934113f, -0.04246978089213371f, 0.06267949938774109f, -0.040782153606414795f, 0.011689173988997936f, -0.3338848054409027f, 0.02200896292924881f, -0.03699313476681709f, -0.36709198355674744f, 0.3997977077960968f, -0.19022417068481445f, 0.1520700305700302f, -0.0040833125822246075f, -0.04656865447759628f, -0.5638677477836609f, 0.1447545439004898f, -0.11646637320518494f, -0.3461053669452667f, -0.3104817867279053f, -0.2546008229255676f, -0.0033058617264032364f, 0.19628013670444489f, 0.05776658281683922f, 0.03272174298763275f, 0.07259902358055115f},
  {0.26578447222709656f, -0.3265555799007416f, 0.16352549195289612f, 0.09043215215206146f, 0.2222977578639984f, 0.02451040782034397f, 0.010107158683240414f, -0.0966709554195404f, -0.18021056056022644f, 0.026122460141777992f, -0.12249890714883804f, 0.16218101978302002f, 0.13416719436645508f, 0.06698796153068542f, 0.20779724419116974f, -0.22550539672374725f, 0.3638911247253418f, 0.4575910270214081f, -0.06428664177656174f, -0.20839516818523407f, -0.015500517562031746f, 0.09312720596790314f, 0.3082480728626251f, -0.00579301780089736f, 0.2068709135055542f, -0.029385825619101524f, -0.03438984230160713f, -0.014261764474213123f, -0.007058309856802225f, 0.04887107387185097f, -0.042120929807424545f, -0.09893476963043213f, 0.1316349357366562f, -0.140904039144516f, 0.053852446377277374f, -0.1977139562368393f, -0.02021133154630661f, -0.12618859112262726f, 0.12799188494682312f, -0.059852100908756256f, 0.2438674122095108f, -0.22868883609771729f, 0.3224853575229645f, -0.23772606253623962f, -0.11050868779420853f, -0.05821501463651657f, -0.12371176481246948f, 0.32322484254837036f, -0.2850029766559601f, 0.1799100637435913f, -0.3097054064273834f, -0.3828364908695221f, 0.10204950720071793f, -0.26425284147262573f, 0.11597906798124313f, -0.1319224089384079f, 0.06057105213403702f, 0.329304963350296f, -0.4590088427066803f, -0.029402611777186394f, 0.06300391256809235f, -0.19197288155555725f, -0.21236340701580048f, -0.037188570946455f},
  {-0.26538899540901184f, -0.20349042117595673f, 0.2939370274543762f, 0.004406161606311798f, 0.4485835134983063f, -0.04766348376870155f, 0.06545699387788773f, 0.16042447090148926f, 0.2756730318069458f, 0.21545837819576263f, -0.1701039969921112f, 0.17404356598854065f, 0.260378360748291f, -0.20970843732357025f, -0.2527025043964386f, 0.11381446570158005f, -0.24914300441741943f, -0.22037045657634735f, -0.12634368240833282f, 0.16960759460926056f, -0.08332688361406326f, -0.10228587687015533f, 0.1541626900434494f, 0.47514867782592773f, 0.147790789604187f, 0.17353111505508423f, 0.09267012774944305f, -0.21441860496997833f, -0.03773676976561546f, -0.21797168254852295f, -0.28726842999458313f, 0.07333524525165558f, 0.13874027132987976f, 0.1108572781085968f, 0.1496373564004898f, 0.007731835823506117f, -0.20297327637672424f, -0.130967378616333f, -0.0856277272105217f, -0.04448086768388748f, 0.04434598982334137f, -0.3258446455001831f, -0.3610871732234955f, 0.08084287494421005f, -0.06112751364707947f, -0.3289472758769989f, -0.26188498735427856f, -0.0506829135119915f, -0.07332877814769745f, 0.4336146116256714f, -0.0016602309187874198f, -0.2848389148712158f, -0.18114596605300903f, 0.006331753917038441f, 0.029255514964461327f, -0.3784726858139038f, 0.16856986284255981f, 0.2296992540359497f, 0.02045685052871704f, -0.2587836682796478f, -0.07469626516103745f, -0.21554985642433167f, -0.12159062176942825f, -0.3764435052871704f},
  {0.05884912237524986f, -0.4008963108062744f, -0.026069276034832f, 0.058165621012449265f, 0.2570675015449524f, 0.14425979554653168f, -0.1105300784111023f, -0.13675467669963837f, 0.35612091422080994f, -0.25560495257377625f, 0.07323726266622543f, 0.038771335035562515f, -0.24817313253879547f, -0.013884943909943104f, -0.03990323096513748f, 0.16907531023025513f, -0.14786110818386078f, 0.19273577630519867f, -0.26688894629478455f, 0.10877715796232224f, 0.050243478268384933f, 0.050017308443784714f, -0.1754385530948639f, 0.15222051739692688f, -0.000633734802249819f, 0.2889249920845032f, 0.14521338045597076f, -0.19733956456184387f, 0.06255894154310226f, 0.3049015998840332f, 0.05045069009065628f, 0.2715017795562744f, 0.08697725087404251f, 0.1954832822084427f, 0.0706910565495491f, 0.06928610801696777f, 0.2812824547290802f, 0.24068669974803925f, 0.1247619166970253f, 0.08407069742679596f, 0.07350292801856995f, -0.2345537543296814f, 0.16721326112747192f, 0.1274004578590393f, -0.23160351812839508f, -0.01089287456125021f, 0.08066907525062561f, 0.21909362077713013f, -0.428343802690506f, 0.14619995653629303f, -0.10961711406707764f, -0.2639123201370239f, -0.42278507351875305f, -0.5390534996986389f, 0.08234833925962448f, -0.20050236582756042f, -0.2996738851070404f, -0.08963210880756378f, 0.10884004831314087f, 0.024919448420405388f, 0.11870572715997696f, 0.12496765702962875f, 0.06342390179634094f, -0.18905118107795715f},
  {-0.25044316053390503f, -0.7188044190406799f, -0.10314662754535675f, -0.06181171163916588f, -0.08261968940496445f, 0.15871773660182953f, 0.13567784428596497f, -0.20049139857292175f, -0.08525481075048447f, 0.07552904635667801f, -0.24385866522789001f, 0.015128876082599163f, 0.06951097398996353f, -0.48659899830818176f, -0.005250758025795221f, 0.15412172675132751f, -0.019735312089323997f, 0.1891254335641861f, -0.19379621744155884f, 0.359488844871521f, 0.027331257238984108f, 0.12939804792404175f, -0.1685011386871338f, 0.20687752962112427f, 0.04492037370800972f, 0.20643876492977142f, 0.4495347738265991f, 0.0029411225114017725f, -0.1282985806465149f, 0.39386123418807983f, -0.11605696380138397f, -0.176390141248703f, 0.31457048654556274f, 0.013609856367111206f, 0.2639003396034241f, 0.2515541911125183f, -0.026770493015646935f, -0.2315179705619812f, -0.21293704211711884f, 0.061220329254865646f, 0.3594179153442383f, -0.14350298047065735f, 0.10872594267129898f, -0.05908463895320892f, 0.3449760675430298f, -0.14976000785827637f, 0.023663120344281197f, -0.15748462080955505f, -0.2329098880290985f, 0.23012876510620117f, 0.0006453769165091217f, 0.1555086225271225f, -0.10104672610759735f, 0.013736385852098465f, 0.130379319190979f, 0.30074018239974976f, -0.1788189560174942f, 0.24237500131130219f, -0.3447604775428772f, 0.1191607341170311f, -0.13030019402503967f, 0.04787580296397209f, -0.06803624331951141f, 0.11425858736038208f},
  {-0.1933024525642395f, -0.13597692549228668f, -0.2364567220211029f, 0.0633687749505043f, -0.12962664663791656f, 0.07696131616830826f, -0.00865012127906084f, -0.4358830153942108f, -0.1264805644750595f, -0.11372611671686172f, 0.08757974952459335f, 0.08554033190011978f, -0.2743905484676361f, -0.07614775002002716f, 0.002505816984921694f, -0.15242601931095123f, -0.2946881949901581f, -0.08340175449848175f, -0.17373979091644287f, -0.07709581404924393f, -0.2807633876800537f, 0.03703121468424797f, 0.1535038948059082f, -0.1183793768286705f, -0.26603230834007263f, 0.053161490708589554f, -0.02012670412659645f, -0.2790887653827667f, -0.20689868927001953f, -0.21057473123073578f, -0.22781206667423248f, -0.20146873593330383f, 0.14609959721565247f, -0.146820068359375f, 0.12569741904735565f, 0.2677081227302551f, 0.25492751598358154f, 0.2018720507621765f, -0.08031871169805527f, 0.0370713472366333f, -0.10857883095741272f, -0.307608962059021f, -0.1387844830751419f, -0.23737144470214844f, -0.4299156963825226f, 0.15098074078559875f, -0.17375752329826355f, -0.2544732987880707f, 0.14845696091651917f, 0.45935702323913574f, -0.02951897121965885f, 0.5083470940589905f, 0.16570565104484558f, 0.015178591944277287f, 0.1952967643737793f, -0.24171990156173706f, -0.03038518689572811f, 0.37811845541000366f, -0.06686339527368546f, 0.027267461642622948f, 0.04757842794060707f, 0.16028434038162231f, -0.0861794725060463f, -0.12406717240810394f},
  {-0.31872349977493286f, 0.3748181164264679f, 0.015699120238423347f, -0.030383750796318054f, -0.15500299632549286f, -0.24677668511867523f, -0.0675627663731575f, 0.22254489362239838f, 0.04305129498243332f, -0.2129168063402176f, 0.04381519556045532f, -0.08092406392097473f, -0.08120058476924896f, -0.037562232464551926f, -0.06274550408124924f, -0.27079063653945923f, 0.00931986141949892f, -0.05390370264649391f, 0.18535257875919342f, -0.10264112055301666f, -0.1123126819729805f, -0.04522402584552765f, -0.13920411467552185f, -0.03151373937726021f, 0.2215449959039688f, 0.33944171667099f, -0.14220035076141357f, 0.2962249517440796f, -0.1504473239183426f, 0.18694065511226654f, -0.17755228281021118f, 0.04259122908115387f, 0.2614292800426483f, -0.2198827564716339f, 0.17201094329357147f, 0.0830586701631546f, 0.33217519521713257f, 0.2580168545246124f, -0.21763193607330322f, 0.03318368270993233f, -0.03707345202565193f, 0.0636119470000267f, 0.06466515362262726f, -0.0892447680234909f, -0.10191454738378525f, -0.02818630449473858f, 0.03774803504347801f, 0.28841400146484375f, 0.1661781519651413f, 0.33929118514060974f, -0.09402768313884735f, 0.04557421803474426f, -0.18107306957244873f, 0.029963957145810127f, 0.12404091656208038f, 0.07399237900972366f, 0.2959310710430145f, -0.04902772605419159f, 0.027981262654066086f, 0.2659021317958832f, 0.14390039443969727f, -0.024938466027379036f, -0.36726006865501404f, 0.38039448857307434f},
  {0.12033268809318542f, 0.35608920454978943f, 0.12317562103271484f, 0.13974937796592712f, -0.2469814270734787f, -0.07523646205663681f, 0.14715887606143951f, -0.0866691917181015f, 0.20695172250270844f, -0.23318752646446228f, -0.04644943028688431f, 0.2679327428340912f, 0.28237301111221313f, -0.020654931664466858f, 0.03271228075027466f, 0.165825754404068f, 0.09570763260126114f, -0.26666006445884705f, 0.7347530126571655f, -0.4054729640483856f, 0.01650366000831127f, 0.3888099491596222f, 0.07250089943408966f, -0.34126827120780945f, -0.33347925543785095f, -0.2790018916130066f, -0.3453766703605652f, -0.0776137113571167f, -0.24474677443504333f, 0.013922985643148422f, -0.2657780945301056f, 0.03430871292948723f, 0.1456434577703476f, 0.07440575957298279f, -0.18382743000984192f, 0.0647723376750946f, -0.0349535308778286f, 0.0696585401892662f, 0.07373681664466858f, -0.002420560223981738f, 0.18264701962471008f, -0.054708465933799744f, 0.09716011583805084f, 0.3126969039440155f, 0.07770484685897827f, 0.08739273250102997f, -0.01729791797697544f, 0.08067679405212402f, 0.2386549711227417f, -0.012575242668390274f, 0.25846901535987854f, 0.3117057979106903f, -0.24499014019966125f, 0.05514618009328842f, -0.14717893302440643f, -0.14484903216362f, 0.23188070952892303f, -0.0841774120926857f, -0.07105440646409988f, 0.38828790187835693f, 0.03497743606567383f, 0.09862501919269562f, 0.04324233904480934f, -0.10743284225463867f},
  {0.05120879411697388f, -0.26441892981529236f, 0.28561893105506897f, 0.08052972704172134f, -0.4474753439426422f, -0.10269839316606522f, -0.07288991659879684f, 0.09323298931121826f, 0.08345939218997955f, -0.017336353659629822f, -0.05637187138199806f, -0.030276376754045486f, 0.05319821462035179f, -0.27781572937965393f, -0.20460546016693115f, -0.16501164436340332f, 0.03497827798128128f, -0.34434109926223755f, -0.15081557631492615f, 0.2080276906490326f, -0.2235172539949417f, -0.10217791050672531f, -0.03959047421813011f, 0.0697764903306961f, -0.33645081520080566f, 0.0694122463464737f, 0.16083639860153198f, 0.4428631067276001f, 0.3252148926258087f, -0.6226081252098083f, 0.1297861486673355f, -0.11328104138374329f, 0.27029985189437866f, -0.08774379640817642f, 0.10962673276662827f, 0.0631725937128067f, -0.07355787605047226f, 0.030089087784290314f, -0.3303918242454529f, 0.3727923631668091f, -0.04849216714501381f, 0.006782170385122299f, -0.10589122772216797f, 0.12874752283096313f, 0.32390743494033813f, 0.5938255190849304f, 0.38416022062301636f, -0.007729742676019669f, -0.19627267122268677f, 0.2788833677768707f, 0.01764623448252678f, -0.11282981187105179f, 0.057326458394527435f, -0.08440209925174713f, -0.10430340468883514f, -0.043777115643024445f, 0.08085315674543381f, 0.2463112324476242f, 0.06487426906824112f, -0.022186145186424255f, 0.06817612051963806f, -0.0002719048934523016f, 0.19851073622703552f, -0.23890872299671173f},
  {0.29916784167289734f, 0.24725574254989624f, 0.13227048516273499f, -0.07540664821863174f, -0.15716436505317688f, -0.13211186230182648f, 0.08153165131807327f, 0.04698910936713219f, 0.4237453043460846f, 0.1424272060394287f, -0.12738196551799774f, -0.1309552788734436f, -0.1631285697221756f, 0.13585154712200165f, -0.07143312692642212f, 0.2138129025697708f, -0.18509656190872192f, 0.2991243898868561f, 0.2623838186264038f, 0.21073010563850403f, -0.17330610752105713f, -0.18753135204315186f, 0.02938546985387802f, -0.2509513199329376f, 0.022311750799417496f, -0.024451766163110733f, 0.10396942496299744f, 0.10175150632858276f, -0.2451470047235489f, -0.015889612957835197f, -0.10773421078920364f, 0.20703433454036713f, -0.08044903725385666f, -0.1117723360657692f, -0.2410883754491806f, -0.12075372040271759f, -0.14057448506355286f, -0.10346280783414841f, 0.10179232060909271f, -0.4332769513130188f, -0.14959178864955902f, 0.13177770376205444f, -0.2766481041908264f, -0.28219929337501526f, -0.030753860250115395f, -0.008717714808881283f, 0.12723077833652496f, 0.2546849250793457f, -0.08282271772623062f, -0.23903970420360565f, -0.1422029733657837f, -0.1739368885755539f, 0.0930677056312561f, 0.03728579729795456f, 0.07378452271223068f, 0.24563944339752197f, -0.3221478760242462f, 0.11079929769039154f, -0.1459711194038391f, 0.41176265478134155f, -0.14533503353595734f, 0.1977434605360031f, -0.22511553764343262f, -0.13965439796447754f},
  {-0.0575784370303154f, 0.6305820941925049f, 0.29412391781806946f, -0.13297130167484283f, -0.27584949135780334f, 0.2874843180179596f, -0.05087180435657501f, -0.05092012882232666f, -0.019788244739174843f, -0.09955617040395737f, -0.07530317455530167f, -0.2588018774986267f, 0.1884573996067047f, 0.29218846559524536f, -0.1399238556623459f, -0.05077876150608063f, -0.29115915298461914f, 0.42870160937309265f, -0.01974310725927353f, -0.382035493850708f, -0.09666910022497177f, 0.10386452823877335f, -0.22188399732112885f, -0.16043449938297272f, -0.007884805090725422f, -0.2652207911014557f, -0.34338757395744324f, -0.4868212640285492f, 0.1329105943441391f, 0.17309457063674927f, 0.34784555435180664f, 0.07875682413578033f, -0.12083867937326431f, -0.36692801117897034f, -0.202825129032135f, -0.03763989359140396f, -0.24631404876708984f, -0.10048814862966537f, -0.00759447505697608f, -0.07202474027872086f, 0.009042646735906601f, 0.5682864785194397f, 0.0535740852355957f, 0.005953146144747734f, 0.1651688814163208f, 0.07498808205127716f, 0.22164329886436462f, -0.2810853123664856f, 0.2541942298412323f, -0.42111483216285706f, -0.10977985709905624f, -0.013965411111712456f, -0.1645016074180603f, 0.05253484100103378f, -0.15413989126682281f, -0.1304795891046524f, -0.09587207436561584f, 0.00249539315700531f, -0.0477164052426815f, 0.5415140986442566f, 0.3150613605976105f, -0.20494326949119568f, -0.1842910796403885f, 0.15576626360416412f},
